9996 16
the 0.053537842 0.03125475 0.05739404 -0.011295806 0.052836392 0.021396905 0.0004889615 0.00788593 -0.04446982 0.026021324 -0.037413698 -0.046294414 -0.004077372 -0.021934688 0.06635593 -0.05885725
and 0.07019562 0.013962994 0.03866493 0.09793363 0.090054706 0.028974785 0.088798955 -0.04234644 -0.046942923 0.0026761736 -0.007979679 -0.084620275 0.05559482 -0.025421191 0.043161593 -0.06734621
a -0.00087024097 0.1327743 0.10957351 0.06306033 0.037705664 -0.04386892 0.03744415 0.02910775 -0.0679595 0.047317512 -0.06187901 -0.06849318 0.04778458 -0.060864095 0.012537803 -0.043695357
of -0.002658204 -0.029120196 0.047456495 0.100368574 0.038098488 0.06191407 0.038315468 -0.0011222959 -0.065327495 0.01371386 0.025012376 -0.06641852 0.039489787 0.01740541 0.0014702319 -0.048048105
to 0.023756934 0.0391813 0.031903107 0.049463995 0.053599324 0.06515522 0.026673421 -0.0032650996 -0.040418666 0.019631023 -0.017547846 0.008959851 0.024497366 -0.014865507 -0.01721119 -0.005875367
is -0.018823897 0.004984426 -0.020995762 0.046949197 0.05047145 -0.010060165 0.004855716 0.025484713 -0.092633896 -0.055403277 -0.048763335 -0.10597491 0.05684522 0.0624341 0.05908858 -0.022007149
br 0.019459449 0.061715137 0.1075652 0.06328807 0.036117528 0.020825094 0.03692497 -0.0370285 -0.07361854 0.027146278 0.03151235 -0.02760692 -0.007743089 -0.061706837 -0.008635769 -0.04331491
in 0.0149305 5.830539e-05 -0.0036424922 0.061605528 0.02825743 -0.038932648 0.051674798 0.019057412 -0.036928356 0.06422778 -0.041270163 -0.06858777 -0.021960936 -0.0020267665 -0.0110026235 -0.017316915
it 0.05738083 -0.008924762 -0.0029968002 -0.012672203 0.027559929 0.02691743 0.041518465 -0.022046793 0.016753362 -0.0056065153 0.04890106 0.037175503 0.021698793 -0.02737414 -0.034423567 -0.01382502
i -0.05799671 0.072866045 0.070534945 -0.024476083 -0.011068028 -0.052663926 -0.012249742 0.041703943 0.03682755 -0.016797043 0.030487353 0.030142957 -0.020372946 -0.0902486 -0.06824804 0.014744644
this -0.045332257 0.0061378884 0.040219087 0.015243163 -0.016468782 -0.031465393 -0.04410641 0.06679029 0.043537736 -0.023791807 0.05198711 0.045290712 -0.055065893 -0.015752634 -0.08022774 -0.0024559544
that -0.033685483 0.01734988 0.020345282 0.06974267 0.07228425 0.09038312 0.04187971 -0.021903556 0.01597197 -0.0011706318 0.03298337 -0.027210072 0.024653846 0.054831572 0.044547744 0.0012316965
was -0.0009286065 -0.02404255 0.045033097 0.055389173 0.06541966 0.06582343 0.018609462 0.02424024 -0.061321065 -0.012316988 0.007951155 -0.009779175 -0.0366379 -0.040355537 0.050236378 -0.02935011
as 0.008502187 -0.03357816 0.002189295 0.0039282213 0.010560033 0.0015826442 -0.0319284 0.0014303145 0.02222557 0.0015393529 0.026378175 -0.016950732 -0.037366692 -0.015985081 0.0024241481 -0.058077104
for 0.04262848 0.04128144 0.023136279 -0.023703 0.0033472045 -0.029751329 0.0043172664 0.021937303 -0.052280452 -0.029278245 0.00182225 -0.02595773 0.0106182 -0.0009213956 -0.041827407 -0.012864825
with -0.04832275 0.03852227 0.060461182 -0.014770429 -0.01399599 0.0022887625 -0.008016951 0.05553846 -0.02483536 -0.079890445 -0.016840639 -0.04526891 0.003844058 -0.06907462 -0.031732354 0.004420035
movie -0.009904306 0.13548085 0.09743524 -0.03837139 -0.005391102 0.07493779 0.011981085 0.11639752 -0.005646854 -0.08705459 0.10104664 0.037203625 -0.12068673 -0.17440666 -0.10128892 -0.014918914
but 0.08102835 0.008548448 0.04000941 0.073699765 -0.006780002 -0.029086823 0.07407254 0.029370157 -0.08558803 -0.00042409828 -0.0695689 -0.045463458 0.00971425 -0.044326544 0.017091094 -0.011802967
film 0.0075690965 0.079199255 0.18702598 0.016170342 0.09938146 0.046820104 0.027173016 0.03595628 -0.025040299 -0.061359007 -0.032964315 -0.08354377 -0.020104822 -0.08283798 0.0067360946 -0.089628525
on 0.026499584 -0.021627942 0.03789072 -0.014231882 0.08471238 0.09558941 -0.01118898 0.0013505209 -0.010644352 0.002790473 -0.016045574 -0.03472719 -0.009279543 -0.06484719 0.03798009 -0.010484111
not -0.060664766 -0.02205939 -0.033431105 -0.010328516 0.032480583 -0.033284858 0.00074391585 -0.008113979 0.02821104 -0.10850934 0.019097239 0.02384149 -0.072432086 -0.011527961 -0.0388975 -0.008214672
you 0.12208127 -0.018090256 0.07631026 0.08711452 0.02508026 0.07091863 0.07303381 -0.08871075 -0.053981576 0.05539378 -0.1276753 0.00052537315 0.03579489 -0.0065811877 0.11277629 -0.058027353
are -0.0856278 0.12917113 0.11977761 0.040350612 -0.011837012 -0.0767775 -0.074756324 0.08184297 0.002380689 -0.065222375 0.034013417 -0.032345288 -0.08414347 -0.12927207 -0.08491089 0.04720085
his 0.1288453 -0.11337549 0.06166544 0.08994829 0.13286446 0.070705175 0.097149484 -0.05920544 -0.1320418 0.088105574 -0.1237142 -0.100840785 0.08889948 0.13114521 0.10369939 -0.09494679
have -0.002389308 -0.026563328 -0.0012512591 -0.058858577 0.00021955979 -0.0011637275 -0.036115024 0.018904472 0.027125249 0.057154913 -0.007138606 0.07306399 -0.021138318 -0.051798824 -0.056718625 0.050824575
he 0.030811675 0.05928824 0.00028244534 0.04191383 0.03399637 -0.015731389 0.063177004 -0.023424821 0.028615676 0.07668046 -0.06600998 -0.027018905 0.07359735 0.08460149 0.07298833 -0.02737438
be -0.008599622 0.0090749785 -0.06920089 -0.00569705 0.036832668 0.03963367 0.027467668 0.040347338 0.045105297 -0.0285359 -0.019542517 0.03364978 -0.038368564 0.012094652 -0.040267117 -0.024522386
one -0.022913717 0.044201154 0.018675542 0.02429222 0.06741722 0.011551244 0.022138007 -0.0029859499 -0.069157265 -0.067693844 0.001565804 -0.006369369 -0.00077383383 -0.029787598 0.032278817 -0.07361359
all 0.043216646 0.016934149 0.06735035 0.10714349 0.02889404 0.1012099 0.11395418 -0.07088788 -0.055057712 0.08380451 -0.051270075 -0.03106782 0.056502957 0.01743351 0.04465725 -0.04986401
at -0.002154313 0.069847494 0.08705021 0.022484612 0.031026917 0.10378045 0.07176013 0.019459194 -0.04313091 0.030120535 0.007593739 -0.005752054 0.01773612 -0.061187584 0.008503574 -0.036107864
by -0.014014258 0.0069619603 0.06066447 0.020843105 0.041860245 -0.06891787 -0.029530471 -0.03950707 -0.008812733 -0.010859671 0.025051627 -0.004768439 -0.004937754 -0.070916176 -0.0039920215 0.016271565
an -0.046109963 0.028104838 -0.023533124 0.0883962 -0.03908994 0.1199362 0.056137234 0.017433096 0.012038196 -0.058090907 -0.031627342 -0.06608427 0.019609839 -0.024404723 -3.3911398e-05 0.024996882
they -0.045271304 -0.007714799 -0.07913303 -0.07188678 -0.07607211 -0.049622253 -0.023688009 0.085623525 0.02115389 -0.057677694 0.031298153 0.060724083 -0.035734456 -0.07209195 -0.0317514 0.03467589
who 0.11074302 -0.09383791 -0.058330048 0.0684165 -0.0052983183 0.09014297 0.05533756 -0.07173348 -0.03839848 0.112421826 -0.102600455 -0.051662266 0.12819381 0.1500108 0.13607238 -0.03146829
so -0.10126134 0.14020512 -0.015077559 -0.08994349 -0.045985054 -0.08757735 -0.10604755 0.1959229 0.101002514 -0.14474514 0.1381034 0.15049419 -0.17087556 -0.15675837 -0.12946287 0.121199295
from 0.032677125 -0.04512278 0.030395241 0.1035893 0.058201183 0.05902668 0.02586195 -0.03202512 -0.12705371 0.028812632 -0.0028415243 -0.12423958 -0.007833828 0.0702258 0.022071626 -0.106300674
like 0.03340422 0.046420213 0.11033589 0.055714075 0.02728686 0.0064601167 0.032462686 0.025189387 -0.083147936 -0.018788876 -0.06625283 -0.070072755 0.06227351 -0.052543133 0.05189704 -0.09279714
her 0.014591247 -0.05430354 0.0027407086 0.0044926163 -0.009876953 -0.035059508 0.07670281 0.026703367 -0.012253676 -0.009623266 -0.070596315 -0.045765843 0.050555117 0.01769068 0.059259426 0.025947614
or -0.0011253874 0.03439452 0.06730427 0.061529916 0.034980353 0.0068113203 0.041988026 0.034061752 0.044027075 -0.019274238 0.01685593 -0.017192218 -0.05536827 -0.009620736 -0.05471592 0.027188677
just -0.03417553 0.13492581 0.08612514 0.041628797 0.039973784 0.02521069 -0.057626087 0.08259984 -0.04369895 -0.067348704 0.08403424 0.0075690094 -0.01140073 -0.016958166 -0.059651252 -0.017770635
about 0.0023974394 -0.02557844 -0.02215471 -0.1235057 -0.12945576 -0.14598854 -0.09058517 -0.031317767 0.06432022 0.01629611 -0.009081044 0.06642027 -0.029221095 0.031335678 0.019499427 0.09853437
it's -0.048586786 0.08275877 0.06922959 0.04046506 -0.0017668796 0.015926473 0.006543454 0.06118715 -0.051714137 -0.07044336 0.04364333 -0.0071614324 -0.012468911 -0.07945621 -0.05612158 -0.025135426
out -0.08435233 0.088527784 0.016776156 -0.047094956 -0.0090434 -0.06446908 -0.13037914 0.13714199 0.06463059 -0.17773482 0.09301734 0.017739939 -0.06464352 -0.078591645 -0.074595496 0.05346886
has -0.09560022 0.031225298 -0.0017289214 -0.068968885 -0.02388266 -0.033844434 -0.063683495 0.0018874168 0.09802026 -0.026700154 0.06316083 0.10167126 -0.063147806 -0.0048566256 -0.07593221 0.060430944
if 0.095641546 0.016317563 0.12711838 0.014199807 0.079792276 0.057507243 0.020881528 -0.080138676 -0.095529705 0.09487659 -0.06537869 -0.042310406 0.10007932 0.019275174 0.08899087 -0.03227918
some -0.054297518 0.098292224 0.009423743 -0.022755183 -0.01342673 0.060966916 -0.0131055815 0.035749026 -0.04751102 -0.072244845 0.0006005078 0.036852777 -0.0850875 -0.06989101 -0.0843241 -0.031681236
there 0.016135838 -0.106103666 -0.027280048 -0.00024426918 0.030073537 0.09622183 0.022182196 -0.010103128 -0.013022639 -0.00034245005 -0.05676157 -0.062114634 0.03732548 0.038399324 -0.011635831 -0.030729031
what 0.0970947 -0.10124779 -0.0014899615 0.11901113 0.10145701 0.024538714 0.054954674 -0.02327082 -0.06633812 0.015497953 -0.11788616 -0.096378416 0.09769217 0.077107854 0.050177492 -0.051322527
good -0.044280503 -0.071590364 -0.057112228 0.052662924 0.01038981 0.04746859 0.054456808 0.038445294 -0.052689474 0.02922714 0.041739367 -0.060975198 0.0480919 0.14560811 0.056235824 -0.04791759
more -0.014353546 -0.049237136 -0.054416925 -0.013560508 0.037382394 -0.010294556 0.016176458 -0.035527404 0.0024168403 0.009573967 0.0012711248 -0.02729505 0.027518602 -0.02728736 0.025538262 -0.04436611
when -0.0033024237 0.0010657535 -0.08409994 0.033518106 -0.044029914 0.040531337 0.085205175 -0.059337582 0.035065 0.09380076 -0.028926097 -0.042377885 0.018141026 0.060790397 0.027910946 -0.041710526
very -0.028504277 0.055250973 0.005483554 0.02554725 0.04028934 -0.0032752536 0.006554753 0.009373043 -0.019005774 -0.07352763 0.037155308 -0.032341987 -0.031789456 -0.08485914 -0.05684919 0.020078864
up 0.010341499 0.041026037 0.064897604 0.05067942 0.1092962 0.07965081 0.04389088 0.027948292 -0.10137164 -0.03881922 0.018016148 -0.057382893 0.060039226 0.052001607 0.010150691 -0.020661492
no -0.056039408 0.047504764 -0.039890837 -0.10761928 -0.046012703 -0.092544354 -0.08435154 0.06879072 0.06511345 -0.09527205 0.15567552 0.042184517 -0.15989582 -0.09642258 -0.06328977 0.049817882
time -0.016141249 0.0055474797 -0.013237205 -0.06411473 -0.094337456 -0.0072233635 -0.016255176 0.080275506 0.08569742 -0.064754836 0.026605207 0.023979368 -0.044317923 -0.022278236 -0.038346175 0.06415181
she 0.041809686 -0.08418548 0.0060136407 0.09716032 0.05859447 -0.04037701 0.016266186 -0.08271984 -0.0651868 0.037574925 -0.05683874 -0.0864811 0.05054495 0.0630288 0.06517155 -0.059896626
even -0.051865444 0.09719681 -0.018286344 -0.068277866 -0.0039808042 -0.022770066 -0.087399386 0.06466922 0.032080922 -0.07756607 0.044227153 -0.0016941204 -0.05165498 -0.049305174 -0.047626957 0.007550435
my 0.01452189 0.038709313 -0.026177766 -0.008487536 -0.022106664 0.03427365 0.06591447 -0.0062867803 -0.039435036 -0.06071734 -0.032535933 -0.048705276 0.037720293 -0.05072978 -0.012998952 -0.020124303
would 0.071556374 -0.016042953 0.069761686 -0.016439183 0.032002628 -0.005782614 0.045235228 -9.110951e-05 -0.053597707 0.042545598 -0.10355069 -0.010655656 0.07639173 0.02555319 0.08745959 -0.017028477
which -0.024665652 0.05509563 -0.048059482 -0.01857111 -0.020609833 -0.07522173 -0.03074807 -0.022203816 0.0052845753 -0.00087883545 0.015686003 -0.062637314 -0.044702698 0.0024532136 -0.06241859 0.043202758
only 0.0028584476 0.12257049 0.025419846 -0.059618026 0.01013664 0.017983094 -0.054588962 0.05315697 0.061080914 -0.11132046 0.06482867 -0.025351342 -0.052060228 -0.09495788 -0.034449443 0.0027683524
story 0.041995198 0.056224287 0.054992724 0.048919246 0.06415164 0.09426307 0.039304554 0.037664764 -0.0110916095 0.012363986 0.03745468 -0.025779512 0.016964206 0.008606405 -0.025559552 -0.05416959
really -0.036476206 0.0876824 -0.02192035 -0.011019718 0.011128879 -0.05657598 -0.04254009 0.12101222 0.0513609 -0.10360695 0.07945997 0.026013056 -0.100181244 -0.09343344 -0.023909068 0.021898072
see -0.004181336 0.10543634 0.0028232194 0.01958094 0.028313419 -0.04179774 -0.0135205705 0.09597273 0.037359927 -0.035837214 0.02600058 -0.041556586 -0.023783924 -0.119362496 -0.014954923 -0.048384037
their 0.09634408 -0.0037294289 0.05910456 0.042754386 0.010545976 0.03193506 0.082599446 -0.058079645 -0.04347552 0.07097192 -0.0822111 -0.10053278 0.109871104 -0.007674629 0.112276845 -0.027092865
had 0.005125967 -0.039080612 -0.019827293 0.039432168 -0.018633569 0.042602517 -0.022590758 0.022968378 0.04452523 0.04026843 -0.06711683 -0.032259803 0.04299106 -0.046229616 -0.0075216345 -0.031555735
can -0.039553776 0.05400696 -0.045709938 -0.022600196 -0.07266846 -0.062361386 -0.009329249 0.04029001 0.07866805 0.026031882 -0.029497808 0.0006492238 0.00066125643 -0.041669607 -0.004609334 0.0720816
were -0.084289305 0.08866605 0.06677795 -0.05327847 0.025043298 0.06759657 -0.061917868 0.07219863 0.01069345 -0.104001686 0.107075065 0.019725284 -0.05283017 -0.08509449 -0.10623725 0.02940679
me -0.13499078 -0.08073194 -0.08872561 -0.03715658 -0.043044284 -0.09574758 -0.06450183 0.0744017 0.046993025 -0.058733683 0.05542757 0.03735032 -0.07478788 0.050395243 -0.039214034 0.037493568
well 0.13074578 -0.07529099 0.08657742 0.056034207 0.12241928 0.022217767 0.15548371 -0.11214376 -0.083252795 0.11813189 -0.14342059 -0.15610221 0.14292154 0.04078962 0.10956434 -0.14115052
than 0.05321918 0.0039373343 -0.010814052 0.05320578 0.0414262 0.037182588 0.017100792 -0.008527973 0.0058444967 -0.02724505 -0.09134436 -0.013968436 0.056380205 0.051003963 0.022038482 -0.062166575
we 0.1146009 -0.04009797 0.053620245 0.05556154 0.11191538 0.11072094 0.057899952 -0.07750861 -0.119355075 0.05005125 -0.06211105 -0.1338706 0.03702436 0.038976047 0.06543921 -0.10500191
much -0.023535315 -0.023194661 0.038755674 0.055193547 0.04991723 0.06933305 0.08060469 0.0043601077 -0.04451957 -0.019486781 -0.0011917031 -0.008776088 0.052577063 0.033421036 0.028316708 -0.038613196
been 0.0050870995 -0.12939194 -0.03165129 0.0136155775 0.012619624 -0.037065506 0.041053142 0.0035050286 0.027477743 0.077136375 -0.018425291 0.024415005 0.014100543 0.04634042 0.010525074 -0.023430446
bad -0.15135503 0.14555979 0.013770562 -0.100740425 -0.10842153 -0.11795086 -0.17984463 0.14699219 0.11216439 -0.22881053 0.20132317 0.1342532 -0.19278176 -0.15251459 -0.11607147 0.07568973
get 0.0011033674 -0.05308097 0.09210987 -0.0062752827 0.04147812 0.022896692 0.016720401 0.014681856 -0.041877866 0.019229727 -0.017295793 -0.025243744 0.039872047 0.05000027 -0.033131994 -0.015769493
will 0.028867114 0.023755742 0.076400876 0.011665844 0.061605815 0.10775143 0.05270952 -0.018938009 -0.053107288 0.05792259 -0.054007467 -0.0061680167 0.101868 -0.011627559 -0.005257077 -0.0969685
do 0.06878156 0.02736112 0.062473614 0.088860154 0.003417118 0.073083915 0.02069951 0.044811916 -0.021407716 -0.025377223 0.046727985 -0.037371263 0.033908643 -0.10651964 0.0026494442 -0.003213316
also -0.0024050237 0.032758128 0.046523612 -0.007378274 -0.007221056 -0.019917697 0.006262827 -0.037933595 -0.017564878 0.013550384 -0.05823339 -0.012289178 0.06765003 -0.04603354 0.042901345 -0.020328688
into 0.00759669 -0.010684061 0.012636609 -0.053772766 0.025199166 0.07240024 -0.052275885 0.008687423 0.027204428 -0.082268395 0.05984033 0.02457731 -0.032285903 -0.042698476 -0.07616205 -0.043291584
people -0.112062596 0.1480825 -0.046230797 -0.09066292 -0.014301794 -0.091339454 -0.12076738 0.13827676 0.085985124 -0.120120384 0.05967996 0.026046826 -0.052087553 -0.05854533 -0.06217217 0.07306352
other 0.09953522 -0.008064581 0.119504854 0.07111249 0.12380314 0.052154064 0.05308313 -0.012012869 -0.098167844 0.013592879 -0.0089627 -0.07895401 0.046445176 0.0100915395 0.08486888 -0.039705638
first 0.0014629631 0.05544917 0.049272936 0.018788021 0.032656904 -0.017730754 0.07713612 0.033143263 -0.02517474 0.08387614 -0.048023187 -0.078888364 0.04395599 0.0027277113 0.039086692 -0.058873262
great 0.07964482 -0.029234609 -0.005525407 0.097731866 0.050332114 0.10533798 0.017828476 -0.00056804117 -0.07117148 0.0064684437 -0.074399546 -0.07853332 0.048394386 0.060129162 0.052044038 -0.08413491
because -0.025268396 0.070271045 -0.050521865 -0.016034575 -0.0969836 -0.05058858 -0.061564665 0.04652744 0.054978024 0.02775223 0.07845713 -0.003014702 -0.041951507 -0.0061745057 -0.044551544 0.067679405
how -0.06962465 0.0601088 0.037885454 -0.01176631 -0.011079379 0.007912144 -0.029818427 0.04399109 0.014371802 -0.14691909 0.08042245 0.026583526 -0.07813436 -0.12734008 -0.13953872 0.09927142
him 0.008000458 0.010895905 0.08313954 0.044407304 0.04358104 -0.02824902 0.053352546 -0.05266971 -0.030244878 -0.02518104 -0.07267017 -0.018938886 0.02769987 -0.07310758 0.059422724 -0.010502196
most 0.069220215 -0.037754726 0.042985994 0.05083573 0.07703928 0.005117822 0.074910626 -0.056280866 -0.07919768 0.06414851 -0.042477395 -0.05825682 0.07608803 -0.009347116 0.09241582 -0.0033059758
don't 0.0071665114 0.054960676 0.027029675 0.040111706 -0.017603908 0.00036636688 -0.010117978 0.021251235 0.03515811 -0.0021435462 -0.010272021 0.0075295772 0.008312393 -0.088338934 0.010006093 -0.024155086
made 0.021755753 0.035943743 0.021320574 -0.010037825 0.022187179 0.034119185 0.023244273 -0.0026558116 -0.0056585185 -0.046255566 0.019185977 -0.0070145037 -0.06636206 -0.051908247 -0.058975473 -0.004672653
its 0.06091739 -0.059789073 0.053402357 0.06307027 0.07178042 0.05390844 0.12127811 -0.090024516 -0.06635159 0.06455777 -0.057217162 -0.08506054 0.11491962 0.030861147 0.06600929 -0.05147976
then 0.013372043 0.013348947 0.08727675 0.018766353 -0.014529195 0.023020301 0.051950127 -0.019515703 -0.024732046 -0.03288647 0.019620448 0.024438158 0.046018798 0.028883645 -0.002695233 -0.016632533
way -0.028691312 0.021249153 -0.060518067 -0.05939728 -0.011088241 -0.010596399 -0.097185835 0.070522286 0.0148359 -0.06826106 0.060780086 0.019020637 -0.10258254 -0.03120806 -0.093449 0.09929186
make -0.10177222 0.10986038 0.014232386 -0.0027825176 -0.06347653 -0.07307852 -0.09123941 0.05059188 0.06454563 -0.10230217 0.12684008 0.052915182 -0.061881382 -0.08429105 -0.09877773 0.013104415
them 0.05723002 -0.06802077 0.063527085 0.14248174 0.110110626 0.0888024 0.09808971 -0.09538192 -0.09531775 0.036835983 -0.101627454 -0.12315882 0.077300824 0.034457564 0.14443137 -0.10750787
too 0.06892819 -0.010463419 0.048425388 0.0046355766 0.058684435 0.044690844 0.016697003 -0.016015934 0.028686216 0.0342808 -0.0649361 -0.007921378 0.045608785 0.065212175 0.027536843 -0.013380092
could 0.055135243 -0.0261903 0.11433687 0.03952339 0.057362348 0.0713395 0.029105881 0.008782734 -0.0725497 0.053676322 -0.053042702 -0.024734614 -0.017668754 -0.028689768 -0.01898533 -0.034645904
any 0.011770176 0.119134836 0.08505833 0.0057081347 0.006637621 0.06289908 -0.036749065 0.03623364 -0.04876009 -0.059018776 0.11146039 -0.07616645 -0.07406497 -0.054551724 -0.036709115 0.018319216
movies 0.019887738 0.10492763 0.011062469 0.0369029 0.05108683 0.046171222 -0.0045526833 0.023890251 -0.049654596 -0.0831481 0.048929263 -0.026829869 0.021592265 -0.063572206 0.01651538 -0.051618952
after 0.030100165 0.093085535 0.09888933 0.08038074 0.08792512 0.025387544 0.0675398 0.020336842 -0.059583608 0.005357827 -0.00074150745 -0.102593556 0.052494146 0.0010820697 0.008503396 -0.09901756
think 0.007917335 -0.101429686 -0.080101766 -0.03206165 -0.09081299 -0.022762919 -0.094801776 -0.011131128 0.09336675 0.06524245 -0.034119043 0.05781242 -0.01194498 0.014782155 0.027415365 0.015364282
characters 0.13329355 -0.073743515 0.10973096 0.13227083 0.13909292 0.14892238 0.16225043 -0.1446679 -0.12405963 0.07312785 -0.10925945 -0.109869875 0.14549549 0.004740886 0.17535897 -0.09632629
watch 0.05444227 0.0010080063 -0.042093147 -0.023101125 -0.08608526 -0.06338311 0.021464963 -0.053486377 0.015687218 0.027526135 -0.014784645 0.022873484 0.015890012 -0.0118309595 0.03785564 0.031476367
two 0.0050078677 0.13624908 0.07023179 0.06770402 0.08377076 0.101483814 0.061585296 -0.033827934 -0.09399338 0.0090598 -0.002095031 -0.03721792 0.026929129 -0.10209084 0.020339001 -0.061281715
films 0.06250898 0.015078874 0.12535751 0.04313226 0.048478924 -0.015714023 0.065685555 0.019501865 -0.020485137 0.024702284 -0.05709662 -0.07967869 -0.030394796 -0.09287753 -0.032674085 0.0003669631
character -0.038143028 -0.03018418 0.017106026 -0.05745385 -0.019385919 0.007256083 0.017780636 0.013002273 0.035185844 -0.015320121 0.011697169 -0.027441839 -0.028956445 0.0027204328 -0.04464157 0.04087625
seen 0.114474855 -0.06366844 -0.004056388 0.049633127 0.015450971 0.023470564 0.082613096 -0.068811715 -0.047121666 0.06671889 -0.058882825 0.025885556 0.06117606 0.07971699 0.06659942 -0.043765083
many 0.0034992907 0.05691225 -0.04751365 0.0052701724 -0.027192926 0.021804206 0.022449706 0.049335793 0.009498468 -0.04095327 0.036688793 -0.0034962373 -0.04538338 0.010288806 -0.010745229 0.05765109
being 0.019470204 -0.13508102 -0.0662397 0.042307384 0.068898335 0.010900724 0.038662247 -0.046418384 -0.034067106 -0.030045543 -0.013475112 -0.09539871 0.053228196 0.116424374 0.028175807 0.0062505663
life 0.08958843 -0.06269582 0.12461832 0.07349289 0.111603834 0.087640844 0.055915352 -0.040765524 -0.05964466 0.043275397 -0.11583979 -0.056677036 0.069731355 0.0017363119 0.13479148 -0.105172895
plot -6.5926964e-05 0.100898966 0.08952052 -0.03730792 -0.024759673 -0.0021139523 -0.044024583 0.10175357 0.0036012058 -0.09901604 0.12459734 0.06017423 -0.098839395 -0.105533965 -0.028966201 -0.0016030808
never 0.0013344086 -0.03862885 0.102301024 0.068028316 0.041526645 0.09610106 0.027322093 -0.022526594 -0.11900596 -0.010175994 0.0064864894 -0.07675993 0.029451407 0.02824351 0.063679956 -0.051195886
acting -0.050549343 0.17614928 0.07411574 0.010237808 0.008906001 -0.018580012 0.0019164195 0.08943433 -0.03618252 -0.047189083 0.060962528 0.04764487 -0.015480952 -0.13144848 -0.023560548 0.008654778
little 0.1296652 -0.037887786 0.13895574 0.15915729 0.14416414 0.1038993 0.16594972 -0.08071218 -0.17265464 0.114991516 -0.123315945 -0.10886009 0.12644532 0.054233152 0.15134197 -0.16236468
best 0.12192412 -0.14481632 -0.027797334 0.08507101 0.07657738 0.01052872 0.09824078 -0.13287932 -0.13309707 0.112599514 -0.08035863 -0.07625101 0.03404334 0.12003132 0.13765125 -0.1185543
love 0.036153916 0.052086744 0.12054194 0.075644165 0.078521915 0.09638873 0.034781244 -0.01894048 -0.085494116 0.027414205 0.013858224 -0.09786084 -0.02838725 0.008893531 0.049611464 -0.037282925
over -0.048787903 0.09131793 0.034082666 -0.05852837 0.022490403 0.04736076 -0.018940944 0.05745705 -0.009736398 -0.058747716 0.10165976 0.0012858618 -0.075570665 -0.07329975 -0.039894182 0.024163045
where -0.06700811 0.08222186 0.0018840212 -0.045389935 -0.09372262 -0.024122199 -0.13009015 0.0877518 0.050993256 -0.07571929 0.05159614 0.11791654 -0.11643057 -0.16812709 -0.05421152 0.08273255
did 0.121758945 0.020068655 0.18023771 0.10593222 0.16803513 0.068413645 0.09975131 -0.1338456 -0.08292785 0.14470102 -0.15246111 -0.10825685 0.08014334 -0.0106873745 0.078903556 -0.11171046
show 0.1068744 0.017580299 0.051183116 0.039885852 0.036128715 0.037182186 0.12033061 -0.016271828 -0.0944251 0.056294926 -0.01741625 -0.104161285 0.059140634 0.054893922 0.059534054 -0.033110004
know -0.000101314195 -0.024098577 -0.09458823 -0.03114465 -0.03192527 -0.045971468 -0.05896415 -0.01640523 0.11036993 0.06821732 -0.0448957 0.0514132 -0.039899204 0.03837523 -0.03487017 0.07466748
off -0.0127549 0.09549428 0.11707896 -0.004500082 0.08050667 0.0729867 0.08022844 0.024204034 -0.07250059 0.003989382 0.027853439 -0.029874707 0.0551445 -0.09149489 0.024017572 -0.0563151
ever -0.04032142 0.08984317 0.06605987 0.032051325 0.010845313 0.058082305 -0.03550949 0.069996715 -0.009542436 -0.023733376 -0.021646045 -0.027385496 -0.053102046 -0.094782546 -0.049981367 -0.031878494
does 0.07037438 -0.042977158 0.06600034 0.10179919 0.079571225 0.13507502 0.12937771 -0.04624812 -0.12205093 0.112260625 -0.08039342 -0.06491942 0.0990206 0.10365478 0.04534461 -0.043649215
better 0.070100464 -0.12904109 0.05728278 0.10343256 0.08408949 0.08712467 0.08159864 -0.002677419 -0.056066133 0.047343023 -0.041838683 -0.13161844 0.066155806 0.13456391 0.049523097 -0.112377174
your 0.0046817786 0.112377755 0.04403477 0.009869569 -0.004392469 0.0668858 -0.036871504 0.039783064 -0.062390953 -0.07500249 0.017638102 -0.02370925 -0.037779327 -0.1388873 -0.010269686 -0.0476913
end 0.049975023 0.0074177887 -0.015335738 0.013503168 0.043803874 0.040296998 -0.029558161 -0.05201358 0.041755166 0.06646391 -0.06689794 -0.034918275 0.041590396 -0.06269526 0.06250349 -0.026186366
still 0.048799824 -0.16303667 0.02405489 0.16440141 0.08171635 0.19137208 0.15179308 -0.10096536 -0.08631416 0.057547495 -0.12917265 -0.0911977 0.12057539 0.2047099 0.1396281 -0.10548928
man 0.039525714 0.0133225955 0.058607284 0.067082 0.017275287 0.0034695917 0.026494024 0.024949266 -0.0828971 0.030213917 -0.020936962 -0.00838012 0.060413636 0.011321064 0.033455733 -0.08905914
here -0.16395988 0.10684554 0.07386253 -0.04961145 -0.031738337 -0.06405485 -0.06086441 0.22074695 0.009484997 -0.18231227 0.14880392 0.037314218 -0.14707176 -0.12796436 -0.12763944 0.058120545
these 0.04280025 0.05904438 0.012154475 0.074690476 0.051927555 0.036432255 -0.0045034997 -0.035490856 -0.031529814 0.04656934 -0.0027761525 -0.04844915 0.018708631 0.0087934835 0.07235542 -0.027557237
say -0.07386231 0.06279315 0.082447216 -0.040870562 0.029632278 0.020113066 -0.076686904 0.025322689 0.051727984 -0.047543935 0.11227971 -0.031571828 -0.060905464 -0.15456477 -0.07966912 -0.0017016086
scene -0.042353235 0.0077541363 -0.030599786 -0.010334761 -0.07434013 -0.011453827 -0.0937749 0.0010645052 0.080263294 -0.100311875 0.029020028 0.049673337 -0.10560002 -0.12111604 -0.058238894 0.0051778834
while 0.035978436 0.01603464 0.033131294 0.055009454 -0.028879596 0.06149074 0.035891615 0.025371386 -0.06272476 0.023648119 0.0056451503 -0.06468769 0.018239357 -0.08000253 0.015561991 -0.056105293
why -0.07501638 0.21123876 0.14518584 -0.09580719 -0.062366236 0.021493733 -0.07433458 0.14288698 0.04216973 -0.16584636 0.13706161 0.09123221 -0.14380158 -0.12676796 -0.08891703 0.0118812695
scenes -0.008153983 0.02935133 -0.033334766 -0.071884125 0.008224614 -0.04281826 -0.036892284 0.016350377 0.030564597 -0.040923197 0.04456855 0.027355915 0.022249067 0.024382835 -0.004489359 0.018516336
go -0.09303363 -0.0067193247 -0.04185645 -0.034765262 -0.024611348 -0.017266598 -0.08632145 0.10522642 0.04442482 -0.10813302 0.13172413 0.08786763 -0.09719895 -0.026134543 -0.12976697 0.10935109
such 0.014925236 0.039142422 0.05301167 0.019842498 0.046126552 0.0012633185 0.022438044 -0.008682891 -0.10065019 0.03407327 -0.10338157 -0.022599488 0.04756322 -0.056524456 0.059331447 -0.025882244
something -0.082247175 0.028566375 0.011128705 -0.018175988 0.022576608 0.050066963 -0.03983955 0.13143395 0.021734348 -0.09732563 0.1227737 -0.0024971976 -0.124628425 -0.0686982 -0.025057243 -0.03791237
through 0.124775745 -0.028413318 0.033927754 0.13698459 0.11404516 0.05576198 0.059922766 -0.0884494 -0.14672777 0.055757944 -0.11641998 -0.0535779 0.095878035 -0.08427016 0.053178295 -0.056678005
should -0.032303117 0.078635 -0.046806097 -0.07732138 -0.053760048 -0.08220035 -0.05702454 0.044199605 0.12667243 -0.07690107 0.07222335 0.06727848 -0.109725714 -0.06730957 -0.06441413 0.13546367
back 0.046707153 -0.07783195 0.012392006 0.0347002 -0.0046451143 0.08269754 -0.019373367 -0.037794642 -0.032847267 0.03208763 0.034161724 -0.04989249 -0.015063085 0.019012293 0.06866116 0.016418936
i'm -0.03699171 0.031544134 0.10920647 -0.053805213 -0.0069263973 -0.037491307 -0.02077089 0.057601783 0.064608574 -0.165185 0.12948619 0.04532083 -0.078839965 -0.066376194 -0.11385668 0.010230163
real 0.020611942 0.07645536 0.04989567 0.06236722 0.05190022 0.098463304 0.10040864 -0.052709725 -0.09467875 0.07680717 -0.10884205 -0.07997056 0.03407731 -0.031563792 0.051100284 -0.07011956
those 0.03811452 -0.05989152 0.06092114 0.025661694 0.06916058 0.04013425 -0.008656089 0.00069750403 -0.049077485 0.009171022 0.005110062 -0.06389718 0.053646818 0.08185619 0.040386707 -0.029975055
watching 0.0005925275 -0.062136374 -0.023983521 0.0050825668 0.09426525 0.065508954 -0.0195843 0.024437334 -0.110134736 -0.037728272 0.036758803 -0.05001368 0.016285094 0.045517996 0.057854563 -0.055581987
now 0.0025771088 -0.015626758 -0.015387422 0.023693232 0.04404344 0.039714396 0.0757869 -0.00880721 -0.074442536 0.051702537 -0.038560953 -0.0021744326 0.06602583 -0.025823982 -0.001791344 0.0063418318
though 0.018316263 -0.029796962 -0.019841725 0.03735754 0.08971894 0.06302359 0.039022233 -0.025275642 -0.09564782 0.045085914 -0.088202514 -0.048186533 0.07415719 0.058967385 0.029191643 -0.010764911
doesn't 0.06857735 0.01876156 0.014100227 0.043289166 0.06090077 0.038723465 0.017557638 -0.019960063 -0.03755928 0.04561626 -0.03961867 -0.03297323 0.078547396 0.04984796 0.07633045 -0.062311225
years 0.09343429 0.09966427 0.13103236 0.06009455 0.11081988 0.03743771 0.10018859 -0.022429861 -0.101018734 0.077275194 -0.08122523 -0.05288295 0.10239319 -0.019005803 0.07315985 -0.08142255
old -0.011301446 0.11423568 0.059394024 0.020514602 -0.0041228305 0.00033482598 -0.0150631545 0.027247095 -0.07079444 -0.016334241 -0.0043450394 -0.050162002 0.030965984 -0.12294617 -0.03281261 -0.015938384
thing -0.10710831 0.09665774 -8.758327e-05 -0.06688487 -0.045270678 -0.042262394 -0.105376475 0.12683247 0.07435793 -0.15006287 0.11896177 0.017820602 -0.11368416 -0.09608786 -0.03565226 0.030238928
actors 0.121697545 -0.11196146 0.06274579 0.030293051 0.12597069 0.040864464 0.09164732 -0.039178688 -0.08394755 0.0651747 -0.09313924 -0.070111945 0.09757202 0.059042543 0.095240146 -0.049582087
work 0.027382905 0.05760422 0.08582728 -0.0068598506 -0.0012313523 -0.06608272 -0.015187077 -0.018518638 0.0060536843 -0.08647025 -0.0061440356 0.0057226303 -0.06912203 -0.061888594 -0.09332439 0.038872726
10 0.12840144 0.07580344 0.16057733 0.061590474 0.1646114 0.05099827 0.12972361 -0.015211154 -0.16309334 0.016234504 -0.028196659 -0.09540097 0.086497724 -0.030912949 0.057494957 -0.1448768
before 0.01798483 0.09280382 0.052723493 0.030763898 0.0083786445 -0.023374863 -0.0026198917 -0.005035219 -0.016885264 0.0068913186 0.033613622 0.0057098903 0.023906866 -0.12030133 -0.011701119 0.03194969
another 0.03935076 0.02580517 0.0741386 -0.010199572 -0.0007640748 0.06048309 -0.018643498 0.06678723 0.031595588 -0.0058441553 0.042093247 0.017689873 -0.004684156 -0.07744564 -0.004770786 0.024691025
didn't -0.06659975 0.045515362 -0.013475631 -0.07354531 -0.008092619 0.0034225998 -0.10685838 0.11348077 0.018763138 -0.10190633 0.06700837 -0.0049938634 -0.03397764 -0.04216257 -0.122136086 0.07441962
new 0.030118298 -0.016389111 0.011096136 0.01241593 0.074720524 0.08018052 0.037031226 -0.0070760716 -0.089975655 -0.011301367 -0.0706039 -0.05623103 0.056438178 0.07056181 0.028665395 -0.032517776
funny -0.097347245 0.11554385 0.026377928 -0.0778662 -0.041501876 -0.084034406 -0.09711371 0.018299658 0.03225069 -0.020669928 0.041466184 0.08138448 -0.116123654 -0.09693669 -0.11128438 -0.00045024083
nothing -0.052865945 0.047015708 -0.038155824 -0.06366936 -0.026243635 -0.09716891 -0.06641697 0.07171047 0.10915239 -0.1010434 -0.00580294 0.04908798 0.006537546 0.0052070413 0.012163669 0.09111611
actually -0.11495648 0.07727914 0.048608016 -0.061604403 -0.08237427 -0.038694564 -0.111168705 0.09808152 0.024359124 -0.113468036 0.06462748 0.052250836 -0.114245 -0.074137546 -0.059159435 0.11414638
makes 0.022772564 0.091785155 0.010644807 0.008546055 0.028038956 0.028294945 -0.024395147 0.010561168 -0.011743422 -0.011448007 -0.042828396 0.026765158 -0.052701287 -0.057620212 -0.036390662 0.04606793
director 0.03439042 0.03083438 0.1597706 0.09809656 0.09157461 0.13065065 0.06648081 -0.005852367 -0.048421822 -0.011021657 -0.08901683 -0.04083591 0.0387998 0.0059672724 0.014181678 -0.081030026
look 0.074889176 0.022079773 0.033787206 0.026764367 0.06579351 0.08808329 0.0074714525 -0.07754292 -0.022020712 0.03271769 -0.022631004 -0.04485275 0.09097651 0.03088885 0.03733946 -0.030136447
find 0.030378746 0.03667795 -0.0563772 -0.020714525 -0.06905989 0.0025034077 -0.07058389 -0.029420404 0.056273416 -0.058966946 0.029943975 -0.011387946 0.017787956 -0.039208405 -0.00666372 0.025248857
going -0.00821993 0.09273326 0.07800885 -0.031923868 0.032137737 -0.040420584 -0.031334452 0.08389674 -0.0051198425 -0.036457386 -0.004935596 0.017589338 -0.058717158 -0.09713171 -0.039488383 -0.016718762
few -0.098555 0.12719862 0.011312384 -0.10260349 -0.027871955 -0.10891616 -0.03962054 0.13767564 0.06660216 -0.13224837 0.098668635 0.09553349 -0.036890976 -0.079084456 -0.060347695 0.11628235
same 0.007481032 -0.08806719 -0.007204485 0.07709852 0.040612016 0.1063651 0.02745487 -0.02931104 -0.025773065 0.021560274 -0.024689212 -0.02032021 0.03749064 0.10713685 0.06134742 -0.05382026
part -0.12602735 0.027536435 -0.07356245 -0.065388046 -0.14251909 -0.14033478 -0.12580682 0.049416896 0.13394345 -0.07211536 0.12572584 0.05557182 -0.10458445 -0.023213774 -0.11864567 0.11754543
again 0.018221764 0.05861844 0.031419314 0.06402825 0.0011468095 0.017734565 0.06382613 0.008802066 -0.09162046 0.085477285 0.0009806152 -0.03204602 0.044427536 -0.06047897 0.071976155 -0.03418613
every 0.08387954 -0.016212923 -0.10796769 0.012930362 -0.09476326 -0.07071181 0.015196766 -0.09883231 0.015253325 0.058462463 -0.04864387 0.05298022 0.1163899 0.021909118 0.08058516 0.03507582
lot -0.05909451 0.08251365 -0.010620487 -0.04250168 0.005654199 -0.08301238 0.0040543326 -0.014004913 0.031302433 -0.049605448 0.028606417 -0.014544539 -0.009518639 -0.074940614 0.008448336 0.03356356
cast -0.032744408 0.046679597 -0.0024443828 0.0019366111 0.0016329198 -0.026203215 -0.01458445 0.053039905 0.0047435123 -0.050966654 0.06034211 0.04169293 -6.73092e-05 -0.048271067 -0.042425625 -0.010453064
us 0.0102909515 -0.074227475 0.06022326 0.15009859 0.16178867 0.14214131 0.05396153 -0.04168389 -0.11152447 0.062668025 -0.027305737 -0.11104002 0.05510282 0.07459147 0.09515884 -0.12240251
quite -0.08580511 0.004299734 -0.043626685 0.0099842595 0.011866119 0.030062174 -0.06046694 0.08581777 -0.027336152 -0.013820345 0.056721337 -0.029183406 -0.0669763 0.052825667 -0.052186273 -0.001871105
down -0.028036844 0.029710505 0.052594088 0.047423825 0.016961642 0.043068856 -0.00044556422 0.032966837 -0.019798853 0.0038138402 0.01913176 -0.024709282 -0.050422728 -0.07001802 0.023397222 0.026281795
want -0.0018880026 0.015541539 -0.018694768 -0.057016347 -0.028287886 -0.0098424265 0.0022318058 0.027982144 0.05184051 -0.05566643 -0.015639437 0.011872354 -0.0105719315 -0.10377824 -0.028365303 -0.0055206646
world -0.061341614 -0.017026562 -0.05364932 -0.023911446 -0.0064800223 -0.073049866 -0.04676491 0.047833342 0.013191388 -0.13093671 0.14033362 0.042288676 -0.1196179 0.034429874 -0.05727281 0.06675257
things -0.10010342 0.13509645 0.12612739 -0.0584788 -0.022023546 -0.04413271 -0.07312067 0.08200392 0.025833262 -0.118907705 0.11732546 0.087505884 -0.05901001 -0.16592368 -0.115236916 0.0019861294
pretty 0.13734198 -0.045690432 0.082868546 0.096207224 0.13787362 0.12087304 0.07929105 -0.11177728 -0.099437915 0.10497719 -0.10003334 -0.15074871 0.13437106 0.092896484 0.07719997 -0.13686351
young 0.11044251 -0.023383386 0.053504374 0.09268215 0.10938076 0.099965185 0.05838085 -0.060292825 -0.032191724 0.024669882 -0.102399655 -0.087819226 0.0921953 0.043451548 0.116565704 -0.05444415
seems -0.017152831 0.03939529 0.021853602 -0.030308207 0.016297309 0.009161547 -0.033619516 -0.011950336 -0.0023189448 0.0021845952 0.02126338 0.01584429 0.029128103 0.0028928572 1.530239e-05 -0.038350306
around 0.07996961 0.010123902 0.112027176 0.12676483 0.06678593 0.06895933 0.03377134 -0.06875539 -0.061895378 0.087163165 -0.049453232 -0.09419564 0.053260785 -0.013307311 0.042806096 -0.026063705
got 0.0077253645 -0.042023607 0.030046172 0.070848644 0.056929566 0.09211415 0.056647904 0.013831042 -0.090655334 0.08897678 -0.058325693 -0.04351125 0.10163995 0.03212141 0.016786722 -0.10004308
horror -0.022873087 0.0069154794 -0.11844983 -0.04298139 -0.06274915 -0.084586754 -0.0640688 0.054055355 0.0029895888 0.036377575 -0.029047359 0.07169519 0.023895267 0.016852405 -0.038909037 0.032588728
however -0.04600642 0.0036090824 -0.062255125 -0.014980155 0.031713862 0.03531497 -0.014793042 0.016192246 0.011748967 -0.042989068 0.0662153 -0.032548178 0.006357227 -0.020911852 0.007893518 -0.010878963
can't 0.10288563 -0.094050154 0.054355923 0.17278653 0.11923097 0.1393279 0.0949891 -0.10235584 -0.1285205 0.020748599 -0.029351704 -0.10057613 0.13369045 0.08909349 0.0877235 -0.13455544
fact 0.013438519 -0.061281875 0.016866347 0.09527766 0.07013945 0.10180068 0.06677581 -0.08442337 -0.070016734 -0.028624998 -0.08158255 -0.1060434 0.07492439 0.15173209 0.025580913 -0.09925909
take -0.027371168 0.13909465 0.07336993 0.05550128 0.034982815 -0.00793803 -0.028454384 0.051785342 -0.072690226 -0.03169159 -0.0010215985 -0.012683716 0.0046482407 -0.054510027 0.013509847 0.02845479
big 0.02384361 -0.12365253 0.043552294 0.057264693 0.10448441 0.08566978 0.06363683 -0.13790156 -0.10876903 0.07280901 -0.08779554 -0.10942385 0.084296875 0.09400625 0.13858989 -0.118213326
enough -0.044920594 0.095766395 0.121312976 0.0036946542 0.010065299 0.032072894 0.008751621 0.0903381 0.007708849 -0.07604347 0.017999452 -0.0664359 -0.051549934 -0.036719423 0.026400384 -0.056892
long -0.067319594 0.0022600628 -0.008391995 -0.06564354 -0.035677206 -0.025995854 -0.034774717 0.006119108 0.011541678 -0.044203356 0.03530849 -0.008544025 -0.054739904 0.010203119 -0.030393068 0.028680671
thought -0.08515719 0.035633262 -0.025252255 -0.10461353 -0.05392377 -0.038131114 -0.12150232 0.004341228 0.050963245 -0.103907116 0.064534925 0.0063217976 -0.11132932 -0.0829174 -0.09600229 0.10177295
that's 0.002983358 0.0043923054 -0.008159388 0.038984273 0.06314378 -0.01205336 0.08669777 0.020774592 -0.034047727 0.011498194 -0.072763 -0.024491653 0.06203737 0.0643584 -0.0093152495 -0.056405876
both 0.097685434 -0.058322813 0.05060524 0.08811205 0.08694486 0.14021479 0.08567219 -0.02265375 -0.08293075 0.03029517 -0.10038242 -0.09242492 0.04696184 0.099290945 0.0760081 -0.110826984
between 0.030983545 -0.0077158376 0.0016781011 0.035375558 0.07516949 0.05735336 0.035812445 -0.09278256 -0.071940154 0.10284608 -0.060723536 -0.026440686 0.07843973 0.059570387 0.07596782 -0.06020286
series 0.04001447 -0.034172464 -0.0122429505 -0.006948632 0.048088502 0.07396878 0.05189582 -0.038826175 -0.027282294 0.07484255 -0.09310944 -0.02939855 0.03366277 0.049192213 0.025239233 -0.032455407
give -0.0060542766 0.02258716 -0.040022522 -0.016236678 0.020308534 -0.05876532 0.011756436 0.0014814169 0.03291948 -0.01665815 0.03706559 0.028122352 -0.012572485 0.035059206 -0.014359969 0.012876124
may 0.008284476 -0.04410064 0.051696032 0.06928364 0.020319559 0.04697574 -0.01774977 0.008957528 -0.045355268 7.852371e-05 -0.08402084 0.0035594653 -0.021419026 0.06348998 0.04461804 -0.013660919
original 0.068623215 -0.049146563 0.018006273 0.08053116 0.032465447 0.032775722 0.02917628 -0.040487465 -0.07393572 -0.016223816 -0.040905412 -0.029008083 -0.010906239 0.019650646 0.045552827 -0.029943546
own 0.04489768 -0.008274055 0.10665886 0.047078315 0.071896486 0.13182572 0.03327505 -0.08668934 -0.064266175 0.012833123 0.0012368185 -0.008220066 0.051019605 0.0747253 0.049985327 -0.022615269
action 0.07174187 0.003977484 0.12229868 0.07510354 0.08977985 0.012285234 0.030627424 -0.011454508 -0.02935202 0.07037493 -0.07262878 -0.02646025 0.079896726 0.019350126 0.04496734 -0.06504161
i've 0.02320001 0.10891813 0.06485165 -0.029758312 0.043917336 0.04586623 0.014971821 -0.012888938 -0.038664218 0.000779444 0.01600855 -0.02303604 -0.025015313 -0.101228304 0.00025993964 -0.04137853
right 0.027796114 -0.02195919 0.08344218 0.06970589 0.11522019 0.07088466 -0.0018248308 0.050030455 -0.10289123 -0.04232471 0.037921213 -0.040112812 -0.036194034 0.047577906 0.01929341 -0.019714946
without -0.06186333 -0.067235895 -0.044862986 -0.01124663 -0.03532353 -0.018852592 0.023035184 0.022039983 -0.044537183 -0.013120619 0.044034023 -0.038907893 0.007977745 0.09143627 0.016472487 -0.019850817
always 0.12903713 -0.07619981 0.06275311 0.06394795 0.05850925 0.046401136 0.11765963 -0.124946095 -0.062470745 0.05180746 -0.09140092 -0.08813484 0.12455437 -0.011522342 0.04854044 -0.07239486
times 0.030166231 0.055803318 0.1179701 0.043705687 0.07258744 -0.011048154 0.0427953 -0.033836205 0.004932751 0.007960452 0.034158416 -0.07492098 0.022696292 -0.054565832 0.013872754 -0.06457258
comedy -0.028651895 -0.016181031 -0.039046012 -0.059162896 -0.014225274 -0.044055466 0.003040035 0.11929687 0.023832463 -0.119660184 0.043644555 0.03186167 -0.05926753 0.051251404 -0.091575764 0.0783599
point -0.11478609 0.15337603 0.08084636 -0.13001548 -0.11256271 -0.12458351 -0.08903665 0.16465798 0.10582526 -0.052261364 0.12665543 0.14648138 -0.116876066 -0.10039907 -0.14765957 0.15575835
gets 0.04785688 0.027720468 0.1595521 0.0711179 0.016051743 0.048001934 0.044426467 -0.03349588 -0.022845125 0.031859733 -0.013871127 -0.06736014 0.08453501 0.03106676 0.08998526 -0.021506943
must 0.14574315 -0.023943327 0.09805544 0.15915889 0.1523941 0.14342138 0.060258903 -0.041449975 -0.1308408 0.072829075 -0.13455911 -0.13200018 0.12806144 0.06141279 0.067956924 -0.09310918
come 0.030168045 -0.052434888 0.03462572 0.051251985 0.0528151 0.12612322 0.037191663 -0.035781696 -0.10041297 -0.00044836936 -0.035065368 -0.02772153 0.025541533 0.030487591 -0.0031530177 -0.10543537
role -0.115637824 0.11398416 0.12517232 -0.0433769 -0.09798532 -0.0037791554 -0.010015246 0.068565995 0.022018041 -0.10591115 0.11968409 0.010158514 -0.05276346 -0.096265614 -0.05122676 0.04987714
isn't 0.037928604 -0.1607187 -0.05654625 0.050253917 0.004252939 0.09473375 -0.03238388 -0.05324175 -0.01453514 -0.017636074 -0.053436927 -0.028803546 0.06706498 0.1611699 0.026550539 -0.00032252856
saw 0.2149964 -0.08466676 0.1352724 0.09840565 0.21193151 0.13989753 0.15370002 -0.18389332 -0.128491 0.1845413 -0.216007 -0.13701998 0.1714897 0.09744271 0.12444267 -0.19698803
almost 0.0023558966 0.04741627 0.035623424 0.052433018 -0.034474038 0.055694498 0.029296342 -0.011408 -0.0019453727 -0.024996592 0.071570575 -0.054632373 0.01050876 -0.014318396 -0.06263446 0.024573646
interesting -0.05359165 -0.006862038 0.02457051 -0.014479435 0.00019664172 -0.03952337 0.006226863 -0.027709702 0.011667898 -0.042769313 -0.009765331 0.028688144 -0.008258645 0.029260816 0.02107328 0.045692783
least 0.025348159 -0.00386579 -0.010851378 0.035926525 0.06566645 0.083687074 0.040384762 -0.092637576 -0.020656325 0.06546631 -0.04116764 -0.09016027 0.039420094 0.08517591 -0.0040737083 0.0035541283
family 0.031307112 -0.029561272 0.019352263 0.06262097 0.045278635 0.03914758 0.115193725 -0.08322949 -0.014006535 0.057084452 -0.04976742 -0.09745822 0.1065119 0.03942268 0.05139625 -0.05948603
done -0.042977303 0.022718493 -0.08314818 -0.08755168 -0.07123517 0.006839073 -0.01869786 0.049403183 0.071353935 -0.06539872 0.03408856 0.05965844 -0.11048349 -0.087451816 -0.045967977 0.004900005
there's 0.062275596 -0.028432785 0.090410426 0.007828403 0.069692366 0.048910517 0.008386683 -0.0546616 -0.020101735 0.0057214373 0.016361794 -0.08328257 -0.04107582 -0.004059123 0.03962429 -0.015729506
whole 0.19644827 -0.10992274 0.14766347 0.09323537 0.17550579 0.13123828 0.14259589 -0.18653524 -0.177644 0.092620954 -0.17861643 -0.12817971 0.099601224 0.09877026 0.1545259 -0.17413445
bit -0.008638709 0.085813396 0.08448099 -0.06837414 -0.01966153 0.02888209 -0.026492035 0.04668771 0.004371041 -0.04986979 0.060698397 0.024229065 -0.106306806 -0.054364275 -0.033173874 0.032972865
music 0.15424228 -0.017831173 0.05491714 0.15093876 0.15130305 0.15647116 0.09223604 -0.150775 -0.110120624 0.09017449 -0.089381315 -0.07114862 0.06760098 0.034231987 0.1031132 -0.1033324
script 0.093533054 -0.05727566 0.01546151 0.05814165 -0.004501515 0.054028817 0.06473508 -0.04576643 -0.024851372 0.12011322 -0.079202645 -0.036652178 0.104669 0.06261824 0.047082808 -0.026158333
far 0.046505302 0.014544043 0.08404732 0.022197474 0.0031562576 0.0510918 0.05251022 -9.595227e-05 -0.013331917 -0.012271737 -0.011645505 0.012373719 -0.011699078 -0.01744527 -0.027750796 -0.047550745
making 0.06854269 -0.060379457 0.079051785 0.07505021 0.054141924 -0.007876325 0.00887006 -0.018937072 -0.011076117 0.00404546 -0.0435273 -0.08303461 0.026712988 0.013004597 0.09411397 -0.048261546
guy 0.009511794 -0.010020658 -0.017632442 0.0007881619 0.03900926 0.0049644285 0.010435474 -0.03527005 0.03552378 0.08521055 -0.024628518 0.04874189 0.052296795 0.013167967 0.07507066 -0.020209916
anything -0.030091945 -0.011231198 0.08069391 0.00724387 0.027489714 -0.015654663 -0.0015705467 0.0074642734 -0.016864639 -0.063936055 0.011048658 -0.0059068846 -0.028892938 -0.091449045 -0.001906724 -0.05109726
minutes -0.115997344 0.12489995 -0.019948214 -0.08475234 -0.080202356 -0.0934869 -0.098788075 0.09669895 0.14552361 -0.19020005 0.16109844 0.14545955 -0.15850198 -0.12749322 -0.19053216 0.15186948
feel -0.08924004 0.012897444 0.023045493 -0.0077642086 -0.07168899 0.013798014 -0.03689522 0.01220236 0.0015410869 -0.030066697 0.045784287 0.021032726 -0.07034214 -0.07924905 -0.09677748 0.055976905
last -0.0631262 0.19761665 0.041244563 -0.06366542 -0.123815954 -0.08166718 -0.089638054 0.097783454 0.07791904 -0.16508578 0.093121074 0.12847252 -0.07126798 -0.24734727 -0.119595 0.11074544
since 0.053524747 0.05746599 0.06862715 0.088239305 0.03972441 0.023678562 0.063446574 -0.047760803 -0.06557573 0.050042488 -0.054062996 -0.11758733 0.046424527 -0.04822596 0.072330534 -0.045030158
might 0.09070126 -0.10676169 0.074669644 0.13194025 0.10090815 0.11885837 0.09976598 -0.07290175 -0.060742244 0.019031383 -0.11532893 -0.1305803 0.10815482 0.0671695 0.033394538 -0.0857249
performance 0.040538844 0.03623835 0.053255297 0.008718812 0.013197428 -0.042934537 -0.042146552 0.012608712 -0.051220316 -0.018953806 -0.029046295 0.042672925 0.031712368 -0.038446702 0.03941372 -0.047576886
he's 0.02809236 0.036193117 0.0118294265 -0.072596245 -0.06207479 -0.05026119 -0.030157192 0.046065155 0.022482896 -0.0068935324 0.01206429 -0.008269199 -0.014902302 0.014426051 0.016641263 0.012904509
2 -0.06181076 0.019330865 -0.081044115 -0.13536385 -0.07138637 -0.043587644 -0.107445344 0.06183043 0.093422 -0.104744226 0.06939789 0.08747674 -0.036563877 -0.07255567 -0.027834719 0.07527925
probably -0.06465866 0.0018248989 -0.07366081 0.016906345 0.022322582 0.075303786 -0.03127726 0.05996179 0.023991304 -0.06922333 0.035998426 -0.0005697369 -0.07962997 -0.051705163 -0.050526008 0.034497123
kind -0.10619912 0.16308166 -0.010132323 -0.029684022 -0.051895387 -0.04141879 -0.025770819 0.11504516 0.061218515 -0.13223527 0.084201485 0.032729167 -0.11704285 -0.075021245 -0.06802207 0.10017087
am 0.0100395465 0.0013171963 0.01509598 -0.076775245 -0.06631417 -0.0003230806 -0.02037435 -0.045064013 -0.01819112 0.007943877 -0.07893136 0.028616939 0.015215651 0.0073848893 -0.0097537665 -0.022825545
away 0.009566553 0.018073177 0.053149834 0.022421993 0.06309776 -0.008314709 -0.025034541 0.010027215 0.024358818 0.017382057 0.03201564 -0.044063482 -0.041913003 0.030597314 0.018923942 -0.024866968
yet 0.028170925 -0.0663432 0.04802005 0.048963267 0.022002228 0.13035205 0.056081105 0.0011417645 -0.078230135 -0.04091601 0.044768825 -0.07839771 0.0343617 0.088503964 0.057732724 -0.051414974
rather 0.13756567 -0.18382671 0.12610754 0.14642306 0.17421828 0.09714859 0.16283762 -0.14416914 -0.16413651 0.11670857 -0.09999049 -0.1299095 0.113030545 0.17857775 0.1309607 -0.12479746
tv -7.192734e-05 -0.05078398 0.06917016 0.015692849 0.040543195 0.048459854 -0.01128158 -0.06952604 -0.09473815 0.056937803 -0.061597593 -0.011057149 0.024579845 0.024257202 -0.009771979 -0.08791728
worst -0.17624335 0.17454627 0.091405325 -0.096788734 -0.08095116 -0.06570794 -0.13365208 0.19021 0.024856757 -0.1944196 0.14922732 0.04564237 -0.14043221 -0.21720237 -0.14533639 0.104112945
girl 0.06443059 0.049489547 0.05285567 -0.006288266 0.013463719 0.053854734 0.038531672 -0.014575705 -0.06354209 -0.02467229 -0.012288951 -0.023793645 0.0059653735 -0.038904212 0.052319966 -0.047347352
day 0.08464922 0.122573145 0.02638617 0.028804166 0.07640375 0.040483426 0.07985091 -0.060304027 -0.03578072 0.07426118 -0.08801334 -0.057723902 0.00019535846 -0.058278482 0.08357406 -0.070664816
sure 0.086724706 -0.13582198 0.09317756 0.14701785 0.06908138 0.082274675 0.123658456 -0.08525613 -0.120259896 0.08367712 -0.13983056 -0.066902004 0.08182932 0.1068726 0.06765327 -0.116571486
fun -0.027795836 0.002574032 0.09892004 -0.007657976 0.015504872 0.07427306 0.054774724 0.019443698 -0.035738684 -0.06809612 -0.047106307 -0.060647786 -0.01046931 -0.062289134 0.024352804 -0.042638674
hard -0.1334036 0.05899408 -0.046617012 -0.11849686 -0.044345673 -0.042971414 -0.045373436 0.12287615 0.059261024 -0.087445624 0.06599944 0.12071783 -0.13669859 -0.09700781 -0.052832574 0.094424486
woman 0.0719263 0.0057252296 0.110431924 0.08105259 0.124711335 0.14152636 0.08803765 -0.009650827 -0.0860883 0.02016177 -0.0083783055 -0.09580502 -0.0006034409 -0.025327038 0.08910479 -0.093199626
played 0.089168906 -0.035728928 0.1067253 0.026933145 0.04247599 0.108583525 0.069674514 -0.094732605 -0.04314853 0.012110313 -0.06317067 -0.047204714 0.036832582 0.057159096 0.032913674 -0.104680054
each 0.14324826 -0.04436401 0.12691306 0.081558794 0.11569221 0.14541546 0.07839555 -0.119736366 -0.08740166 0.14916772 -0.15137015 -0.12655227 0.14203338 0.02178697 0.08361838 -0.1455521
found 0.0587056 -0.027875807 -0.020009715 -0.010610491 0.0089702625 -0.007769589 -0.03854036 -0.03313704 -0.026168147 0.06638297 -0.053742085 0.02591582 0.048055235 0.04994076 -0.006133218 0.015758345
anyone 0.007680849 0.031873982 0.112337254 0.045086443 0.10082355 0.093117386 0.050332014 0.03862705 -0.05218564 0.01044965 -0.0609922 -0.12389364 0.012835557 -0.066875465 0.0035898366 -0.051775
having 0.13106014 -0.0010952824 0.14805299 0.11026415 0.11301731 0.09670111 0.1344487 -0.13052934 -0.059264883 0.06910109 -0.08039581 -0.12109475 0.07802639 0.054356694 0.1441804 -0.07733073
although -0.06681403 0.13121144 0.021648724 -0.07381505 -0.06386228 -0.07660755 -0.06512938 0.06570413 -0.021256862 -0.0974948 0.032196686 0.015758708 -0.07712222 -0.10000766 -0.11023863 0.0481909
especially -0.024426179 0.02445681 0.085307896 -0.0027158745 -0.021442043 -0.038244423 0.027051175 0.051433127 0.0048632408 -0.015813248 -0.013718817 0.025659023 -0.024877459 -0.009969053 -0.04807835 0.0037492863
our 0.08396709 -0.16522305 0.12126298 0.11822168 0.13962068 0.13519482 0.08301598 -0.2091397 -0.117947 0.19496611 -0.11260291 -0.14250654 0.12143749 0.11457343 0.14597362 -0.13838461
believe -0.07567026 0.028644186 0.0057042264 -0.040449318 -0.097247064 -0.066431135 -0.04368285 0.07118196 0.017898785 -0.018381223 -0.0011324743 0.010981162 -0.032827828 -0.027197149 -0.08953363 0.019887475
course 0.06984746 -0.10335892 0.041745797 0.044020627 0.062842585 0.06578311 -0.010606785 -0.09410957 -0.057919208 0.023547927 -0.07610605 -0.068949305 0.012425709 0.056251317 0.031461917 -0.07407255
comes 0.019637845 -0.07032422 0.038263608 0.079713106 0.116133615 0.09141826 0.028504647 -0.041672047 -0.036908753 0.073505946 -0.089514405 -0.03410934 0.041619405 0.0016444396 0.047585737 -0.07461138
looking 0.061015468 -0.024081286 0.0927066 0.06436633 0.06771022 0.016548358 0.019573752 -0.019326061 -0.038674407 0.06707975 -0.074774034 -0.09858606 0.03284117 0.017272353 0.07049517 -0.06346033
screen 0.052646585 -0.015813986 0.04763337 0.1488708 0.08567208 0.081761286 0.10293515 -0.0497614 -0.06778029 0.04058963 -0.13890412 -0.12888713 0.048346184 0.047780782 0.073991396 -0.09633284
trying 0.18950011 -0.17350478 0.08892951 0.21164033 0.18605547 0.14285684 0.15777627 -0.17750283 -0.15833732 0.22876357 -0.20388733 -0.18999945 0.22052844 0.13247703 0.24004135 -0.16212831
set 0.14040706 0.04146231 0.040936712 0.119930804 0.07162923 0.09483889 0.12099829 -0.08878964 -0.14543673 0.14586608 -0.0988699 -0.14763255 0.11724179 0.0054352544 0.1000787 -0.11226377
goes 0.19575307 -0.17591058 0.04905233 0.21410768 0.16526712 0.16572775 0.16974503 -0.14344989 -0.13965817 0.20205991 -0.24632388 -0.23088104 0.21015236 0.16883421 0.16966416 -0.22448312
looks 0.0012050471 -0.014805353 0.049552113 0.050180625 0.06466768 0.012239379 0.04488216 -0.055684492 -0.032658122 0.11600949 -0.08324766 -0.06554912 0.07606412 0.022673968 0.100291766 -0.040423393
place 0.12761576 -0.10640521 0.105767846 0.18527897 0.13137011 0.14574662 0.11014004 -0.16033891 -0.17873098 0.17702387 -0.1943821 -0.16612099 0.14880842 0.0947232 0.19188568 -0.13194147
book 0.07325825 -0.101348884 0.0265673 0.021340959 0.015111361 0.065754905 0.039231412 -0.072739705 0.0012253376 0.06371237 0.0031968432 -0.023855623 0.039235305 0.040968742 0.06291216 -0.054564524
different 0.023522386 -0.056092333 0.05379372 0.044294722 0.06260925 0.040765096 0.08772905 0.01878475 -0.07211779 -0.032440756 -0.064914875 -0.036666825 0.07116886 0.068042405 0.019113148 -0.024960265
put 0.06268893 -0.028098203 0.028451242 0.04445331 0.09453422 0.11203472 0.07579566 -0.03370349 -0.108267486 0.07144654 -0.036717776 -0.05966545 0.07131391 0.04024938 0.086621195 -0.09023205
ending 0.05615014 -0.004511757 0.07039674 0.02694877 0.086939126 0.04210191 0.041003667 0.027717391 -0.027537473 -0.010532127 -0.032255653 -0.04586082 -0.021652147 -0.04920911 -0.035114177 -0.041409306
money -0.146171 0.120650075 -0.019841002 -0.12920469 -0.07045667 -0.047646817 -0.08199415 0.14005372 0.06541561 -0.18777469 0.16786769 0.07584437 -0.10694299 -0.20575239 -0.11159208 0.097857706
maybe 0.06556815 -0.010396854 0.044115335 0.055996526 0.07025356 0.02989605 0.007505907 -0.05881678 -0.08670714 0.014649312 -0.071502626 -0.08006578 0.062643945 0.023302957 0.027636614 -0.050562717
once 0.18297645 -0.11348677 0.10990054 0.1982501 0.1486309 0.09498456 0.12554178 -0.13299574 -0.11796461 0.18142208 -0.19536467 -0.1949519 0.18701454 0.14730923 0.21804036 -0.17071931
sense -0.06467336 0.04633007 -0.052074317 -0.0696068 -0.011469526 -0.05390253 -0.06850479 0.04464851 0.060723677 -0.0730044 0.10026235 0.06511427 -0.09502376 -0.019426752 -0.029545812 0.011980102
reason -0.13655153 0.15969196 -0.008537701 -0.083774164 -0.1241144 -0.04071442 -0.067854725 0.16785257 0.098082915 -0.1647709 0.14082456 0.12897246 -0.10447876 -0.1509146 -0.14924063 0.08210246
true 0.06404899 -0.03665174 0.054013014 0.0625207 0.0513029 0.07452494 0.07848321 -0.05207914 -0.07440678 -0.038491484 0.005188379 -0.07523874 0.051830444 0.055600762 0.025974032 -0.09943308
actor 0.08849649 -0.09842424 0.040298708 0.13036042 0.14379592 0.08692473 0.042992868 -0.10359369 -0.12448903 0.13369562 -0.13920835 -0.049160045 0.06844028 0.060383085 0.13153368 -0.13827458
everything 0.056676496 0.0369438 0.11643668 -0.020147674 0.01978546 0.06054059 -0.025230678 0.005410051 -0.031122314 -0.06506735 -0.00049341866 0.031094158 -0.034097984 -0.015478011 0.021055244 -0.01783188
wasn't -0.12678732 0.16840704 -0.09084224 -0.07457135 -0.08103126 -0.07318002 -0.18628988 0.18324955 0.06935811 -0.19743833 0.15196158 0.09823756 -0.2012718 -0.13302809 -0.15206842 0.12862383
shows 0.049569987 0.051557634 0.07148026 0.063578844 0.011949064 0.0014298187 -0.014119303 0.058123633 -0.07758375 -0.03008747 -0.004258649 -0.046956416 -0.049433686 -0.053821974 0.008730185 -0.010184181
dvd 0.13414183 -0.09057363 -0.004257509 0.115784235 0.08015852 0.024751555 0.074298464 -0.06730898 -0.047044367 0.103098236 -0.100651346 -0.0335424 0.071708106 0.12186152 0.06684117 -0.035383202
three 0.054644663 0.04282536 0.13352947 0.04636046 0.03498145 0.0039501535 0.041207854 0.03093316 -0.0612824 0.06635213 -0.07535842 -0.08417547 0.03480914 -0.058424044 -0.018513396 -0.045635667
worth 0.13409176 -0.017937742 0.15665293 0.09816647 0.08493207 0.1058275 0.07269154 -0.082914814 -0.14155744 0.13155046 -0.07401556 -0.16390777 0.14771117 0.016493117 0.1421864 -0.15114357
year 0.08844122 0.06161507 0.12174392 0.040425237 0.13854066 0.07098 0.07336603 -0.042413447 -0.11085935 0.12889697 -0.11098665 -0.11885704 0.1083628 -0.14514636 0.050044127 -0.13807648
job -0.002320873 0.0231054 -0.08210861 0.020674663 -0.0040245545 0.003314668 -0.026932657 -0.009128939 -0.0075915945 -0.035620797 0.07257746 0.08382674 -0.0036731663 0.0067971153 -0.0814871 0.0042873137
main -0.07195688 0.106301114 -0.034314208 -0.041453615 -0.07690594 -0.022713182 -0.10144302 0.0795351 0.022549057 -0.029182946 0.02977554 0.045884594 -0.062525555 -0.12958077 -0.06799548 0.034098588
someone -0.13588506 0.25229317 0.09552832 -0.07248018 -0.030232089 -0.01710056 -0.11599273 0.1850208 0.1178198 -0.21974011 0.23831104 0.071228445 -0.20206988 -0.23598023 -0.17991106 0.13773865
together 0.02663258 -0.04030118 0.02574934 -0.025177347 0.028073221 0.047138322 0.031932417 -0.06537861 0.002303009 0.006417318 -0.04696792 0.029425107 -0.03536553 0.017650176 -0.040544547 -0.029229946
watched 0.06026252 -0.045981538 0.010561743 0.15095417 0.10643125 0.10937443 0.14311191 -0.07358682 -0.08452789 0.01958629 -0.055138808 -0.078965046 0.12211517 0.053265844 0.046004876 -0.067473516
play -0.024451936 0.022954924 -0.058020566 0.05444685 -0.08372725 -0.051331438 0.01298482 -0.00053634826 0.054554936 0.05430115 0.007303298 0.032244164 0.037086304 -0.004548712 0.01497238 0.023492457
american 0.048428256 -0.026703728 0.00659225 0.014273531 0.059827168 0.086678416 0.03183272 -0.070018925 -0.075163856 0.06020682 -0.11789518 -0.026495855 0.061802067 0.10855301 0.07711684 -0.090523385
plays -0.049523313 0.05600934 -0.018063199 -0.04023412 0.00084891735 -0.06547785 -0.04702418 0.042977937 -0.020610604 -0.11985332 0.0875009 -0.020560978 -0.07172803 -0.049154505 -0.040051002 -0.006852277
1 -0.05678083 0.10423503 -0.06707 -0.028170543 -0.09494043 -0.08747492 -0.07334638 0.013915799 0.02646577 -0.12393011 0.06292276 0.05108725 -0.066584595 -0.047358524 -0.09046753 0.050088894
said -0.008731184 -0.086887404 -0.122968845 -0.037543964 -0.08350197 -0.029368829 0.012001058 -0.01459933 0.08560298 -0.017657066 -0.057839237 0.07791951 0.029724393 0.069350444 -0.009162908 -0.006321428
effects 0.08558965 0.037664644 0.102017686 0.050333414 0.0667344 0.019897737 0.08002066 0.028122248 -0.06331183 -0.0295791 -0.050157443 -0.09476853 0.033056945 0.008788731 0.06115502 -0.054081075
later 0.059382528 -0.07350012 0.014259728 0.1382007 0.11992035 0.12055647 0.0822374 -0.08118508 -0.07737071 0.090303175 -0.0351435 -0.09999507 0.0052049058 0.07347074 0.10058821 -0.080364205
takes -0.030169914 0.019479875 -0.026496932 -0.021692226 0.014153827 0.05555628 -0.046898812 -0.01605011 -0.0239439 -0.05188912 0.02402633 0.0074876603 -0.060690373 -0.0606241 -0.03474302 0.00068231806
instead -0.028825637 -0.038604904 0.026316263 -0.021324273 -0.024802072 0.06314934 -0.072605655 0.07130004 0.0012672915 -0.082748935 0.049696032 0.007427266 -0.009323559 -0.03481872 -0.08727143 -0.0072242776
seem -0.016277052 0.041228727 -0.039653458 0.0016973026 -0.017932147 -0.09266494 0.02989653 0.018627664 0.058255896 -0.01631188 -0.010051215 0.02103575 0.0051203114 -0.018634068 0.019711634 0.03538031
beautiful 0.16068059 -0.025908161 0.099054456 0.14992656 0.16618921 0.17054087 0.118452296 -0.15579055 -0.17322114 0.15623702 -0.12892309 -0.11042756 0.09263363 0.011993523 0.10711241 -0.15644711
john 0.07209442 0.032023385 0.06735126 0.08410616 -0.0060970574 0.024756856 0.07047898 -0.054432575 -0.0014665333 0.03679675 -0.06942027 -0.09212035 0.0071804593 -0.011276098 0.09435145 -0.026555821
himself 0.034522716 0.05624413 0.06759187 0.03781827 0.0057242466 0.049484443 0.024806218 -0.014760313 -0.011608317 0.078667276 0.00017295471 -0.015922721 0.07151847 -0.0710539 0.061388604 -0.07373575
version 0.053360477 0.050770335 0.09739576 0.06884577 0.09184605 0.008691216 0.07403868 -0.08728767 -0.025021654 -0.021821624 -0.042171728 -0.07882605 0.05690739 0.0042653084 0.07404417 -0.08937283
audience -0.0063627884 -0.0019840884 -0.08679083 0.04670908 -0.021222249 -0.03207268 0.08617606 -0.019735087 0.028710268 -0.0086068455 -0.01432189 -0.020020466 0.053943947 -0.0061894604 0.08184164 -0.031374358
high -0.03279113 0.029875819 -0.034492042 0.0007260955 0.021476174 -0.04373536 -0.049403533 0.07804653 0.034916326 -0.07936453 0.047968052 -0.020025404 -0.013716272 -0.07277942 -0.034643486 0.05106656
house 0.115193725 0.12436969 0.15248099 0.10963356 0.10490588 0.040352102 0.14609554 -0.09916242 -0.074195065 0.10733627 -0.08351665 -0.08748028 0.118243404 -0.08914172 0.04934024 -0.11539231
night 0.012689522 0.0062500075 0.061268255 -0.008545682 0.026566068 0.06589908 -0.016859233 -0.016194968 0.008181851 0.0279368 -0.0015397961 0.030362248 -0.0074798223 -0.042316116 0.03795956 0.023267325
during -0.02780853 0.11340504 0.12327075 -0.044434007 -0.0106665455 0.0058843503 -0.05626512 0.034312796 -0.06059996 -0.03851866 0.023927245 -0.025817394 -0.016944855 -0.06661813 -0.0931618 0.0045547527
everyone 0.06572678 0.025182042 0.09961289 0.023520513 0.06798669 0.012464758 0.044391923 0.0008171868 -0.03886303 0.04218213 -0.01725396 -0.035394553 0.011880511 -0.11264819 -0.0057205907 -0.019612707
left -0.03127458 0.08687844 0.07924349 -0.026555004 -0.038643245 0.005998401 -0.06943777 0.0075099044 0.042226274 -0.10469194 0.016506514 -0.0120537225 -0.05813661 -0.06583047 -0.07666292 0.048751943
special 0.14220315 -0.0721962 0.05842285 0.13263305 0.075460106 0.08333087 0.13087921 -0.14731461 -0.15835536 0.08168716 -0.14805067 -0.06583244 0.10145925 0.12522727 0.08049514 -0.07792383
seeing 0.040755495 -0.03590361 -0.015843883 0.044006027 0.019408591 0.092145465 -0.014276216 0.026587525 -0.044277262 -0.06963704 0.00407317 -0.07409358 -0.0360564 0.0027150724 0.025488228 -0.0056778765
half -0.029815305 0.13115916 0.010787518 -0.080867305 -0.04671107 0.016373027 -0.04313865 0.022766704 0.03377568 -0.07119866 0.07866056 0.035984505 -0.04758838 -0.08086621 -0.07901235 0.0381465
excellent 0.1311078 -0.02441313 0.08611758 0.08449245 0.13604394 0.09495291 0.1254593 -0.124261834 -0.12186108 0.12591091 -0.15873465 -0.09289465 0.14894621 0.1417984 0.10829151 -0.10274997
wife 0.08106386 -0.03669376 -0.01907795 0.010240989 0.0925894 -0.0050209053 0.02566724 -0.07983862 0.0073022125 0.05374431 -0.036066517 -0.07681705 0.02347625 0.03871891 0.056591008 -0.0842067
star 0.025365947 -0.039247632 -0.0050063767 0.016182624 0.008694215 0.032365598 0.05975979 -0.044043336 -0.07952188 0.040584482 -0.05826467 -0.06906137 0.036549665 -0.033127263 0.07003517 -0.056744084
shot -0.007493917 0.06831734 0.085106224 0.024569359 0.08574308 0.026282564 0.076139845 -0.024405502 -0.0023646154 0.05804603 -0.017686412 -0.086352825 0.002216876 -0.037902888 0.034608416 -0.007961375
war -0.011454079 0.058638927 0.086771145 0.054391906 0.054183643 0.10861647 0.015028554 -0.0054255705 -0.109622896 0.03415622 -0.021671884 -0.09318155 0.019918108 -0.10478423 0.046101812 -0.052480355
idea 0.016789772 -0.1131428 -0.04118772 0.029646462 0.058658797 0.05499305 0.006855639 -0.024610534 -0.08382788 0.09654685 -0.11589775 -0.069263145 0.11313582 0.15590969 0.08445749 -0.072514296
nice 0.12566146 -0.058984607 0.2015052 0.15503578 0.120881654 0.11811598 0.1275982 -0.20022562 -0.14386593 0.11714125 -0.194606 -0.13163511 0.16507322 0.048254482 0.114842355 -0.12155734
black -0.003230671 0.040446494 0.004192345 -0.04308289 -0.061007213 -0.053004127 -0.04013774 0.020082626 0.012409613 -0.04554756 0.05914414 0.035340637 0.01727518 -0.030656593 0.019771278 -0.014028747
less 0.014935069 0.04903429 0.10041304 -0.07896531 -0.033151507 -0.048276372 -0.060935814 0.048014082 -0.02054332 -0.035687 0.03488779 -0.019168252 0.0062971413 -0.06269369 -0.05976107 -0.01566073
mind 0.16934066 -0.14432633 0.13878506 0.21713987 0.24913378 0.15472233 0.1822425 -0.27512676 -0.24704337 0.18739939 -0.27694982 -0.20661181 0.19813678 0.19577737 0.28568342 -0.16961427
simply -0.03361473 -0.04323345 -0.043765254 0.022669036 -0.030792175 -0.053433556 0.04726761 -0.0037811513 -0.029740656 -0.034728933 -0.010764483 -0.027741205 0.048724946 0.009257658 0.014905285 -0.024520153
read -0.046686262 0.011084689 -0.035562113 -0.02083722 0.03591085 -0.009459484 0.034735706 -0.017567495 -0.023756564 -0.041472763 0.067297466 0.015048534 -0.0028827444 0.02829091 -0.03327623 0.029096866
second 0.030623471 0.0073217684 0.10229579 0.055318285 0.04864209 0.08335194 0.0032489335 -0.06679717 -0.012331886 0.045274366 -0.09170492 -0.09325504 0.06811881 -0.049262762 0.06954032 -0.07190282
else -0.039058823 0.10116614 0.027856572 -0.029375281 0.026904056 0.0064101075 0.0327872 -0.015679527 0.011921574 0.006757319 0.055897266 -0.018229822 0.023438305 -0.15347894 -0.050665833 0.005922148
you're -0.033073902 -0.023431526 0.025251616 0.042928595 -0.038058903 0.092294 -0.013197714 0.046544097 0.029710969 -0.0038623458 0.02776727 0.02782236 0.010132498 0.02477068 -0.04843191 -0.015672462
father 0.065970965 -0.037656765 -0.003884825 0.0430002 0.05477713 0.022540137 0.08044847 -0.03129444 -0.086107016 0.05873027 -0.059404895 -0.07427989 0.021339454 0.0064288513 0.026101468 -0.10391905
fan -0.0007276723 0.099209756 -0.01799205 0.052808557 0.054317806 0.035006862 -0.002678589 0.01381738 -0.056394108 -0.0032744487 0.040399447 0.018457986 -0.012211077 -0.07202028 -0.024961093 -0.050986882
poor -0.03002838 0.028128684 0.061750676 -0.0019250097 -0.039328285 -0.040394202 0.044522848 0.06803851 0.04662953 -0.017883545 -0.013556835 0.04310743 -0.0027671107 -0.07513298 0.017400645 -0.024761692
help 0.07710673 0.035820108 0.08119386 0.10826649 0.060195796 0.05000276 0.10057938 -0.076631516 -0.07080282 0.052788492 -0.059666544 -0.086114205 0.07939457 -0.068399295 0.021601072 -0.08308405
completely -0.0055760695 0.032130674 0.084159814 0.018508429 0.044471968 0.023093259 0.043232433 -0.059012745 0.011235239 0.047746506 -0.014104727 0.0016611032 0.0043189935 0.0071166786 0.03489878 -0.06257796
death 0.01603161 -0.079636574 0.03169374 0.0873136 0.066012464 0.03434874 0.02282967 -0.082335286 -0.06545292 0.039923765 -0.016442258 -0.02188828 0.09416244 0.005599055 0.098692305 -0.03482458
3 -0.112484746 0.073921554 -0.13609208 -0.076947846 -0.08458507 -0.026936723 -0.077157065 0.09850325 0.0815968 -0.17890711 0.101819746 0.098131076 -0.11743639 -0.08689043 -0.16302383 0.07796085
used -0.11988244 0.07031023 0.059383515 -0.09924663 -0.07263408 -0.034331035 -0.06163893 0.053979617 0.055573303 -0.14699607 0.106017955 0.10380251 -0.07403354 -0.14001557 -0.056094583 0.09924068
home 0.0816504 -0.046154197 0.10862967 0.10825198 0.14899112 0.048366435 0.08831187 -0.12892158 -0.11120394 0.062970325 -0.1271541 -0.13464001 0.1299355 0.031463824 0.13048486 -0.114986725
either -0.0931781 0.035315603 -0.05005726 -0.036408555 -0.05882314 -0.061101586 -0.042519055 0.031673837 0.037136372 -0.051284995 0.041455507 0.034289706 -0.124346465 -0.04818237 -0.101193056 0.034175847
short 0.115502395 -0.045335043 0.10254774 0.13926291 0.14477767 0.05144546 0.10449347 -0.03990954 -0.11190556 0.1341758 -0.084667414 -0.05381767 0.044476524 0.08809855 0.061976075 -0.13545723
line 0.034546547 -0.011571313 0.105287075 0.09837553 0.056006305 0.012920137 0.03320696 -0.07692184 -0.0998788 0.062526084 -0.05234529 -0.06569235 0.0772764 0.02038395 0.03744502 -0.10386342
given 0.1537507 -0.1257273 -1.3177545e-05 0.19399965 0.10850852 0.14763974 0.20145541 -0.1597596 -0.12461452 0.1675195 -0.13804196 -0.19899091 0.16096142 0.1339307 0.22037832 -0.20388563
men 0.06344194 0.045121793 0.082996555 -0.013753404 0.025688542 -0.011884071 0.039639007 0.014662858 -0.006586754 -0.024774006 -0.041227847 -0.020226333 -0.009580681 0.0072917007 -0.033478316 -0.02447155
top 0.09851127 -0.026325239 0.13303569 0.16233206 0.13354039 0.1214477 0.19649523 -0.07007626 -0.1967116 0.12941515 -0.1491491 -0.14476879 0.17010738 0.11121552 0.10174451 -0.15523791
dead -0.011792126 0.03390377 0.08399202 -0.058854897 -0.0065116063 0.054262128 -0.07144284 0.1169975 -0.04950099 -0.09147678 0.09427969 0.049534816 -0.044479 -0.07765303 -0.07687549 0.030527817
budget -0.010081345 -0.025957674 -0.018568253 -0.0035027834 -0.04631835 -0.0038673421 -0.010787843 0.08469431 0.07677985 -0.058401242 0.10424625 0.04095383 -0.08668806 -0.004096549 -0.05416385 -0.0048141815
try -0.012947513 -0.0060142917 -0.012575275 -0.02239474 -0.03027963 0.023939686 -0.03361014 1.2328211e-05 0.007112895 -0.0186436 0.01684472 -0.015571343 -0.0023786882 0.025218155 -0.037621886 0.026545277
performances 0.027665667 -0.061126005 -0.0073779784 0.04889009 0.07075425 0.010367385 0.07866595 -0.0340919 -0.018144455 0.045970865 -0.045987062 -0.0211986 0.007127917 -0.013757304 0.029229492 0.0066916584
wrong 0.026086647 0.025770402 0.13962166 0.11738355 0.13633828 0.14303009 0.068677664 -0.02086852 -0.114319146 0.022343148 0.02554904 -0.060264442 -0.026332404 -0.008945462 0.0038949784 -0.1309817
classic 0.04407588 -0.056597807 -0.024036534 0.11561058 0.07906716 0.083180614 0.11233105 -0.10598352 -0.0796978 0.12650114 -0.082711525 -0.07932366 0.055551913 0.059383947 0.12333658 -0.07037134
boring -0.046049304 0.15054817 0.022564404 -0.079851255 -0.02522817 -0.012626754 -0.048055004 0.08468132 0.036069486 -0.099897265 0.039247062 0.06532386 -0.032428 -0.061463058 -0.1198626 -0.014641007
enjoy 0.079592824 0.07251476 0.091829985 0.1332827 0.1691828 0.111535735 0.1152202 -0.11055964 -0.10476413 0.08126808 -0.13096768 -0.13027577 0.10972153 -0.012538811 0.06674782 -0.09524938
need -0.074669406 0.008912839 0.086898856 0.04072499 -0.06729907 -0.0636984 -0.04408388 0.0102403555 0.03520079 -0.0701147 0.023145232 -0.015982695 -0.035904497 -0.02866889 -0.042577017 0.028853027
rest 0.03613567 -0.099872984 -0.024934955 -0.0036667986 -0.060968243 -0.027159072 -0.014403319 -0.015211603 0.03442104 -0.008674781 -0.06124567 0.04473006 0.020718502 0.03571955 -0.023288513 -0.02000565
use 0.05747243 -0.025520138 0.08196206 0.08570072 0.01632412 0.049037978 0.03960829 -0.054747608 -0.048952978 0.0716433 -0.098595135 -0.11241162 -0.0027714523 0.012468451 0.014974551 -0.04919378
kids 0.022541791 0.020496154 0.019937737 -0.0035035464 0.05898052 0.0012693553 0.026788354 -0.014026986 0.0022337134 -0.02156532 -0.0045224177 0.03822199 0.016915003 -0.04705483 0.056025274 -0.02597357
hollywood -0.023746872 0.007955967 0.0391614 0.020469492 0.03711188 0.022138115 -0.010041485 -0.017484551 0.04359006 -0.038972896 0.01600642 0.0028205295 0.03612764 0.01824652 0.046111524 0.027239833
low 0.09321663 -0.08423014 0.17442074 0.17204472 0.1468036 0.1367883 0.14332867 -0.15537621 -0.11355676 0.14859973 -0.16261378 -0.11127996 0.10901303 0.074633494 0.122238964 -0.16158588
production 0.018631969 0.048874717 0.0016267028 0.012810629 -0.02192661 0.02250193 0.006207628 -0.043967128 0.05339086 -0.08058616 0.03733014 0.016469043 -0.032544516 -0.0010378796 -0.037291568 -0.0065042106
until 0.08291167 0.012592844 -0.0086496025 -0.033158317 -0.11807623 -0.0859783 0.032997802 -0.012063091 0.10663131 0.08354745 -0.01437875 0.05157683 0.024876013 0.034042064 0.09419298 0.034592114
along 0.051629394 -0.03807203 0.049908042 0.075907245 0.105910964 0.0991496 0.063342944 -0.026186306 -0.121742114 0.06239111 -0.05319526 -0.020067506 0.08244429 0.07369226 0.074563004 -0.106182344
full 0.022893969 -0.036947977 0.12742792 0.009251499 0.10363312 0.07262714 0.06877332 -0.051149674 -0.06769471 0.052386835 -0.06928936 -0.022766503 0.041464973 -0.052766193 0.07312419 -0.05857054
friends -0.13725387 0.09755614 -0.028128805 -0.06266635 -0.12833856 -0.09191724 -0.13875178 0.13502432 0.037704315 -0.11577206 0.1454994 0.14123903 -0.08517675 -0.13859287 -0.15701373 0.09861608
camera -0.008894807 0.039005168 -0.04907392 -0.009956205 -0.06706302 0.0108769145 -0.034577332 0.012177017 0.02171757 -0.045986965 0.063214906 0.08639332 -0.07179241 -0.08604666 -0.08491795 0.011388442
truly -0.063296326 0.07187018 -0.02780948 -0.048623968 -0.030648598 0.020234948 -0.031716738 0.09883892 -0.003987288 -0.15499717 0.05235395 0.05269979 -0.100961834 -0.06295694 -0.05146141 0.037191406
women -0.10667568 0.08763944 0.017865608 -0.024868509 -0.008597358 -0.05585621 -0.07130639 0.16990943 0.029406501 -0.14812869 0.10163344 0.06135655 -0.081244424 -0.048915397 -0.13536787 0.010194244
awful -0.16271402 0.15586518 0.049712427 -0.13570996 -0.041562036 -0.12539466 -0.12615399 0.16604114 0.080491565 -0.1867405 0.10934504 0.06359241 -0.114306286 -0.16989566 -0.13940513 0.102579154
video -0.010251347 0.10612689 0.078561366 0.053124387 0.06064339 0.020702519 -0.01336451 -0.006159014 0.0032981182 -0.046848334 -0.024426786 0.032763075 0.024702057 -0.06595331 -0.048279 -0.043091733
next 0.08729459 0.039094947 0.09482245 0.10862225 0.017588928 0.084968776 0.09311311 -0.07748132 -0.091014974 0.043573607 -0.009936322 -0.03094036 0.051522497 0.04378926 0.014019797 -0.051344335
tell 0.035376158 0.0038380194 -0.032603007 0.04575049 0.044733156 0.07723999 0.0803794 -0.022460856 -0.11603734 -0.005900983 -0.03765911 -0.030859934 -0.023914313 0.044666283 0.027126322 -0.042716254
remember 0.036805116 -0.039437007 0.046410196 0.04980837 0.036861826 0.029350303 -0.004867522 -0.047052946 -0.06342701 0.065139264 -0.04923612 0.006616294 0.056712482 0.024176026 0.087344475 -0.014730603
couple 0.100164846 -0.11264849 0.076118045 0.080358595 0.06870473 0.058696233 0.10121771 -0.0948426 -0.057100408 0.1372572 -0.09989224 -0.12714297 0.061450772 0.10783978 0.14453256 -0.078696266
stupid -0.03359193 0.012594583 -0.00014217624 -0.065981336 -0.080763616 0.0048784395 -0.023273313 0.048733477 0.06504538 -0.12359409 0.037878703 0.06376505 -0.07258706 -0.03936562 -0.042290937 0.012316194
start 0.016551917 -0.082186714 -0.111807495 0.04159538 -0.0420178 -0.031524185 0.038238328 -0.027790787 0.0456932 0.03546777 -0.004475968 -0.040666435 0.049446985 -0.018253312 0.030856024 -0.015789399
stars -0.08715108 0.13670161 0.040321697 -0.011190804 0.007846177 0.016095066 0.0033865925 0.07798771 0.061900552 -0.09932465 0.09593322 -0.010754468 -0.108545944 -0.16789071 -0.08372589 0.039983608
perhaps 0.12638538 -0.071361855 0.13876885 0.148596 0.124626726 0.10605313 0.1425494 -0.083306454 -0.09563356 0.13224545 -0.075294085 -0.078465074 0.1256512 0.048636183 0.09948969 -0.15463439
sex 0.099908285 -0.027108707 0.08026502 0.052496668 0.077504076 -0.02076998 -0.002060006 -0.022853851 -0.0265778 0.015528246 -0.04957529 -0.03665692 0.044532184 -0.022856541 0.049796455 -0.016610378
mean -0.10944211 0.01257439 -0.033576787 -0.07094251 -0.040831104 -0.009779562 -0.090758644 0.087975495 0.0034119305 -0.04535553 0.10039881 -0.04013856 -0.120549425 -0.020573596 -0.0734845 0.06857558
came -0.013886021 -0.005354084 -0.040573634 -0.047139186 -0.008628617 -0.04142617 -0.01616724 -0.012094275 -0.0005741433 -0.04125864 -0.016737746 -0.01614329 -0.03269931 -0.012766046 0.00035362793 0.043714095
recommend 0.044848293 -0.028992722 0.11188333 0.10602657 0.14872187 0.09862167 0.12029396 -0.0680869 -0.11871019 0.029656366 -0.043273754 -0.090827584 0.07972393 0.0007713422 0.123315684 -0.13312204
let 0.053256053 0.04420091 0.004061446 0.019598892 0.00027428093 0.05981303 0.07909483 -0.07278203 -0.08691708 0.090127334 -0.0026304484 -0.084773585 -0.003442035 -0.05432092 0.07695445 -0.014127795
moments -0.039346542 0.08397117 0.15965196 -9.455495e-05 0.018010901 0.021618165 -0.021000985 0.029894661 0.032608725 -0.059384793 0.079798006 -0.04418436 0.008193888 -0.1610338 -0.038272075 -0.03689684
wonderful 0.010514277 -0.045804117 0.042049743 0.06381613 0.10618374 0.049066953 0.069783725 -0.09817292 -0.0513314 0.068429396 -0.10514234 -0.060485527 0.011378908 -0.020329304 0.10125169 -0.052085847
episode -0.046313174 0.011022523 0.026048029 0.062405225 0.071410775 0.10262507 -0.031300083 0.0866207 -0.0022111682 -0.0965276 0.01889942 -0.046276417 0.008873511 -0.030559817 -0.064615734 -0.015869044
understand -0.04481563 0.07857396 0.05838961 0.025057219 -0.06167683 -0.04518233 -0.01775694 0.030320251 -0.020656891 -0.019923382 -0.018121509 0.035102904 -0.01513052 -0.09123604 -0.04810864 -0.03079722
small -0.022263292 0.025091948 0.02845079 -0.03502826 -0.016359037 -0.050420597 0.036913183 -0.014610266 -0.013189928 -0.042547707 0.04870624 -0.022349995 0.017767701 -0.07569589 -0.0056802607 -0.0018707523
face 0.11453144 -0.0351091 0.0798854 0.1644479 0.13513145 0.08148614 0.13345724 -0.10478073 -0.08783639 0.0992372 -0.16325967 -0.0964378 0.1566132 0.06938252 0.13729827 -0.15057151
terrible -0.08077924 0.07806603 0.06767825 -0.015728591 -0.040405225 -0.043835286 -0.008016115 0.08955238 0.017526051 -0.09742812 0.07705201 0.049399182 -0.13257596 -0.10175881 -0.1061642 0.05055346
playing 0.033558458 -0.1282086 -0.06260287 0.061133232 0.021745503 0.03957406 0.100419335 -0.06953241 -0.062154777 0.08607381 -0.13337411 -0.0136898095 0.04528546 0.12762219 0.074172616 -0.0018782762
school -0.07006813 0.077275015 -0.051165517 -0.015506481 -0.00877428 -0.032655843 -0.013884398 0.015991652 0.010812777 -0.054788057 0.091420524 0.051300116 -0.059429754 -0.015440546 -0.025377711 0.077576436
getting 0.041572485 -0.073309354 0.028013961 0.070138015 0.113341525 0.030703697 0.058275603 -0.08051914 -0.09409037 0.065907314 -0.10510338 -0.03486362 0.08964039 -0.010439901 0.021971706 -0.083227575
written -0.07733344 0.0825403 -0.083891585 -0.11058666 -0.05868681 -0.07795083 -0.060674187 0.095711626 0.10048389 -0.13697462 0.08308455 0.036171827 -0.11302769 -0.11625191 -0.072432995 0.06596444
doing -0.055401016 -0.05464892 0.011973016 -0.018600509 0.040985078 0.024517367 0.0011395997 0.04437042 -0.01201618 -0.06717304 0.014673835 0.010755814 -0.029779611 -0.013859587 -0.0008664235 -0.041542117
often 0.15416357 -0.08859899 0.07838384 0.10985495 0.12867534 0.1425314 0.13074468 -0.12494402 -0.13431637 0.19038515 -0.17970198 -0.16003783 0.14470792 0.14892928 0.18659024 -0.14474353
keep 0.02954602 -0.0014226803 0.031996123 -0.008676283 0.01869616 0.061016355 0.022517946 0.043231227 -0.02180326 -0.057069678 0.04425684 0.0026976208 0.030632598 0.037582934 0.054010764 0.01582586
early 0.122639164 -0.14139472 0.012095495 0.14242531 0.08975225 0.08723178 0.14574105 -0.11424725 -0.059958544 0.12093585 -0.08427972 -0.15840249 0.11025739 0.15328099 0.13577326 -0.07607578
name -0.053061847 0.0694899 0.05267713 -0.049717806 0.021826575 -0.02444898 -0.050640643 0.030942842 0.038023762 -0.04505481 0.06358412 -0.000892719 -0.053683165 -0.12953551 -0.045338973 -0.0119013935
perfect -0.006743535 -0.025410844 0.03272379 0.030109523 0.06274779 0.053744312 0.02393112 -0.018716889 0.0013355428 -0.0048007197 -0.03929663 -0.027672851 -0.0131718945 0.009103641 0.05822803 0.011145737
style 0.14080182 0.0214842 0.105074376 0.12974924 0.07748369 0.030812612 0.1253463 -0.12707943 -0.13042118 0.15328074 -0.15321846 -0.14222917 0.16704498 0.06843816 0.11384037 -0.14327762
human 0.033055965 0.06485598 0.067618996 0.08310853 0.022268355 0.0062287184 0.080348626 0.022288578 -0.036929198 0.063410334 -0.08014467 0.004371128 0.040403046 -0.025224142 0.07321921 -0.020145107
definitely 0.065328315 0.020077677 0.022769399 0.009822009 0.042997107 0.07450382 0.07869639 -0.07133951 -0.087231584 0.026646748 -0.08146376 -0.059943017 0.07266224 0.01317368 0.008694998 -0.042514708
gives 0.111338824 0.0369154 0.09573444 0.06227952 0.11406866 0.036990028 0.036492653 -0.026252637 -0.12531294 0.07674949 -0.0753546 -0.11295155 0.05600391 0.05083782 0.054876428 -0.12648247
others 0.0028635752 -0.037675936 -0.02489475 -0.04413668 0.005761912 0.0030898198 -0.03747157 0.007313947 0.0026688087 -0.06688028 0.052525032 -0.014663957 -0.051579215 0.054221477 0.008782694 -0.045083866
itself -0.0877792 0.14543831 -0.052328218 -0.09325535 -0.066425845 -0.03004098 -0.025721315 0.15487719 0.06814047 -0.1777075 0.137247 0.06440639 -0.11735741 -0.13844131 -0.09307906 0.019330148
lines -0.08875321 0.020906651 -0.07878293 -0.07619563 -0.03458273 -0.023748951 0.0059973 0.026703965 -0.019735103 -0.05678728 0.10667211 0.05966624 -0.011199142 5.7503694e-05 -0.04391377 -0.013038024
live 0.048168223 -0.016451845 0.048995484 0.067711346 0.06383203 0.07623478 0.055533536 -0.044426557 -0.04781163 0.024369415 -0.060641825 -0.08253359 0.040431987 0.005256922 0.068129525 -0.06475879
become 0.09087088 -0.04356145 0.08464469 0.08506805 0.10658436 0.07589465 0.080029584 -0.09659308 -0.10550217 0.13401414 -0.120010294 -0.06469334 0.065271705 0.10469374 0.068155155 -0.09883376
dialogue 0.028431917 0.019470667 -0.018214475 -0.007236448 -0.030411208 -0.009984994 -0.03128722 -0.022260971 0.008656179 -0.0044077476 0.045600716 -0.013205206 -0.015954329 -0.07799315 -0.010123652 -0.007259455
person 0.07143097 -0.06541558 -0.08848552 -0.035588358 0.013221877 -0.06481911 0.004214633 -0.07115138 0.07069381 0.04296331 -0.11521681 0.029461352 0.048453648 0.11544776 0.11491668 0.015780834
lost 0.021807551 0.026701575 -0.12371661 -0.00592909 -0.13930418 -0.13555518 -0.006179131 0.02917762 0.1561578 0.046380736 0.024887031 0.14817011 -0.027507478 -0.010498792 -0.0046151974 0.08457966
finally -0.03116763 0.05203476 0.035082392 -0.006313995 -0.04256779 -0.03939954 0.036071703 0.06271681 -0.042424593 0.035609696 0.03944756 -0.04215455 -0.047343235 -0.040351555 -0.004025545 0.021359932
piece -0.16643293 0.2109196 -0.02322863 -0.10028891 -0.08960272 -0.02321541 -0.13081142 0.2269993 0.060986195 -0.261836 0.16212472 0.13394211 -0.2318214 -0.19438781 -0.19252245 0.15122569
head -0.08509031 0.20063074 0.028218728 -0.06520809 -0.099378616 -0.012011487 -0.0838084 0.12374079 0.111887515 -0.16093054 0.14211598 0.08656269 -0.118927374 -0.19958784 -0.10566792 0.042377207
case -0.15293682 -0.0019572135 -0.111589484 -0.04897681 -0.14097212 -0.1436773 -0.14110883 0.08365147 0.120796196 -0.111758575 0.1387076 0.07613376 -0.09263704 -0.06454954 -0.1480966 0.103536285
felt 0.06740294 -0.00032525999 -0.016776858 0.050164007 0.058470618 0.014563454 0.058668807 -0.086037815 -0.08167954 0.07766383 -0.042383164 -0.088902175 0.076178834 0.0019314592 0.08623542 -0.0843225
yes 0.031611837 -0.029356437 0.010118268 0.0815865 0.0774504 0.078122415 0.05199176 0.004798805 -0.044426072 0.11215852 -0.11524106 -0.09618531 0.029042372 0.086166605 0.036734488 -0.07414979
liked -0.004217433 -0.02445324 0.07583296 0.0857733 0.01190829 0.03570394 0.059588753 -0.06487995 -0.06653251 0.047553375 -0.079598404 -0.06530769 0.07217137 0.07823984 0.089939006 -0.08718587
supposed -0.13103169 0.14913642 0.0054907715 -0.11842048 -0.05597489 -0.10019984 -0.08560712 0.11916468 0.10970199 -0.14566508 0.13536309 0.117514655 -0.11156767 -0.06942934 -0.06291061 0.12041165
title -0.085920885 0.16305174 0.017542277 -0.06602918 -0.0745885 -0.012363422 -0.034153547 0.07290348 0.07150134 -0.11013861 0.084056154 0.034681853 -0.04805841 -0.10544398 -0.047776867 0.09436869
couldn't -0.05249812 0.08016645 -0.015783405 0.011875646 0.050746452 0.030604916 0.015044723 0.024787983 0.0026146597 -0.06484107 0.004794671 -0.07092258 -0.04230764 -0.0046509886 0.023713162 0.01428948
absolutely -0.017724648 0.04916944 0.1797665 0.04996979 0.16065787 0.16689417 0.04193899 0.014573519 -0.14941429 -0.09887015 0.08869865 -0.111635 -0.042438317 -0.0326207 -0.03780844 -0.14842927
white -0.018661942 -0.009308467 -0.043858625 -0.024969611 -0.0013508288 -0.06364916 0.0011486458 -0.006589685 0.032936566 0.015396892 0.013682747 -0.023410466 -0.027994568 0.008940606 0.009402534 0.0044220802
against 0.11753288 -0.118402086 0.13780466 0.1687788 0.12148537 0.14171562 0.15123992 -0.20634651 -0.21541965 0.11554288 -0.13312016 -0.16774888 0.18012497 0.18267934 0.20845744 -0.118741944
boy 0.06599225 -0.093419485 -0.0019433228 0.09235904 0.11937665 0.101202294 0.02183748 -0.051394977 -0.11008422 0.11262481 -0.04923045 -0.07472504 0.11089041 0.09956506 0.104059406 -0.055862136
picture 0.08649667 -0.049066905 0.040425986 0.035413086 0.09415198 0.020404266 0.09699471 -0.020926926 -0.07234608 0.07070744 -0.059781007 -0.06851838 0.10995494 0.0507284 0.08887637 -0.099031806
sort 0.09430723 -0.021543542 -0.09401288 0.029033037 0.06859338 0.04103926 -0.003504889 -0.06466466 -0.07677672 0.065386906 -0.03028443 -0.012289637 0.0060159913 0.105635874 0.058854528 -0.060852353
worse 0.06759086 0.04820163 0.047532298 0.026407722 0.0013484614 0.05536351 0.041477967 -0.03573556 -0.025366174 -0.044302054 -0.022307826 -0.046414934 -0.04871996 -0.05152467 0.0060556037 -0.055599432
certainly 0.08995516 0.0175313 0.14799063 0.09801475 0.08346708 0.095154665 0.086849876 -0.07057135 -0.11295777 0.07335182 -0.12808718 -0.05655967 0.080405265 0.0032882895 0.089493275 -0.10609934
went -0.1542472 0.15296383 0.008742442 0.005319675 0.03454668 0.060661785 -0.052175585 0.0993733 0.009943348 -0.17796372 0.10518013 0.009777814 -0.13782589 -0.16947407 -0.16937347 -0.006494506
entire -0.041171182 0.17266905 0.057302963 -0.04944185 -0.0351372 -0.1444318 -0.086249106 0.08799214 0.055768058 -0.11171428 0.09624091 0.13017672 -0.12693919 -0.18144491 -0.08021192 0.044527214
waste -0.2183739 0.2643325 0.06879361 -0.060338862 -0.057658885 0.03441141 -0.1282903 0.28731677 -0.008035525 -0.2557278 0.2414506 0.0283914 -0.22057338 -0.291565 -0.20601933 0.058046952
cinema -0.021708328 0.06486173 -0.04581088 0.00018862211 -0.01826572 0.014803415 -0.009263824 0.040473267 -0.03984006 -0.04510523 0.02805379 0.01474468 -0.0811624 0.023535017 -0.0038547444 0.029115537
problem -0.06869892 -0.019812137 0.017838122 -0.06519976 -0.03031903 -0.015072131 0.026642298 -0.02966291 0.021937085 -0.046466697 -0.02682112 0.036956314 -0.018795457 0.04017537 -0.05131472 -0.017819079
hope 0.061791677 -0.007636716 0.15661973 0.11496418 0.12707205 0.07254749 0.05740574 -0.10082622 -0.12452674 0.021958668 -0.10558365 -0.13554788 0.09900147 0.024901632 0.07153167 -0.11537025
entertaining -0.036890533 0.031029379 -0.0046885973 -0.0063135284 -0.028720114 0.051018164 0.02414491 0.0066634985 -0.027173085 -0.044087213 0.029977456 -0.03750058 0.008150558 -0.014943486 -0.02708819 -0.049507562
she's -0.09390218 0.04833086 -0.029857265 -0.067260765 -0.0074317693 -0.024612833 -0.0819742 0.08586971 0.082676835 -0.055343524 0.11430808 0.056084618 -0.039604288 -0.05189367 -0.0832292 0.09410777
mr 0.016357725 -0.0471548 0.020918213 0.059967384 0.022443788 0.023202514 0.086369514 -0.06344555 -0.06796522 -0.012396145 -0.051676515 -0.06340288 0.027723987 -0.025709962 -0.0062036123 -0.017970087
overall -0.018380499 0.08209554 -0.054589573 -0.024333948 0.009175622 -0.052855574 -0.0057212976 0.0949154 0.04720813 -0.12370193 0.03635421 0.05814618 -0.08567928 -0.10843204 -0.0286168 -0.0097331675
evil 0.018085288 -0.0099601075 -0.08319182 -0.048872855 -0.06837264 -0.049540915 -0.067144446 0.05047704 0.06320884 -0.025433213 0.043746304 0.07781892 -0.051830508 0.008703546 -0.046216093 0.02981623
called 0.020693265 0.010842995 0.02360245 -0.019153504 -0.01536716 -0.00679042 0.012769298 0.0795273 -0.036547896 -0.07981441 0.022531435 0.0046514138 -0.058962658 -0.048593335 -0.03277506 0.014607818
loved -0.020738382 0.01867247 -0.022937693 -0.04876344 -0.0011898517 0.016063856 -0.026546858 -0.0015903099 -0.036741 -0.01750291 0.054692484 -0.045879703 -0.07479411 -0.10107364 -0.023102302 -0.022492554
based -0.08656033 -0.0049844617 0.012328806 -0.08397246 -0.023947967 0.0056888848 -0.017369825 0.056568436 0.0028275403 -0.049595628 0.013086385 0.046945482 -0.040588476 -0.088495076 -0.06708412 0.0714981
oh 0.054209337 -0.05826571 0.02312301 0.057039887 0.03597721 0.03600132 0.016721817 -0.008333227 -0.005449865 -0.010216518 -0.04252339 -0.06101513 0.034420952 0.036886465 0.038763992 -0.05707195
several -0.044530116 0.06665297 0.09143856 0.068211436 -0.007745751 -0.010664497 0.044769228 0.005963485 -0.06222488 -0.013918468 0.018239593 -0.022007573 -0.045687404 -0.055889864 -0.04220217 0.013053778
fans 0.056833718 -0.09601264 -0.052722666 0.010056049 0.019855896 0.087642156 -0.003984953 -0.044101194 0.008069753 -0.024544658 -0.07866625 -0.061192967 0.08833728 0.07248638 0.060606204 -0.06911098
mother 0.0032643797 -0.036522686 0.015279079 -0.005109953 0.05723501 0.0002821858 0.08725651 -0.018067079 -0.018138226 0.06637642 -0.090240784 -0.054386325 0.0856025 0.08682381 0.060996786 -0.033767823
drama -0.014760354 0.062344123 0.037101477 -0.021796828 -0.050218195 -0.03883073 -0.0027271553 0.038278937 0.063428044 -0.04624728 0.10334869 -0.026092315 -0.07761026 -0.025287533 -0.114489876 0.019568823
beginning 0.13055778 -0.063199595 0.11037099 0.17869994 0.08607039 0.1397857 0.15839991 -0.07970252 -0.118930794 0.121783786 -0.13445704 -0.091289476 0.08848576 0.098801665 0.14336331 -0.16936862
killer -0.050134256 0.04094147 0.004206276 -0.048673805 -0.03102649 -0.05449486 0.009483361 0.0377318 -0.026343504 0.031057904 -0.042042237 0.060990207 0.03896655 0.0067167366 0.026889073 0.012374145
lives 0.010626112 -0.011044446 0.06216906 -0.021914659 -0.02462542 0.03830905 -0.009539956 0.060839783 0.013587372 0.0004235467 0.07177983 -0.022578087 0.004338586 0.013536396 -0.05175705 -0.03253905
5 0.09405228 0.01611025 0.10261509 0.064029194 0.060452983 0.008454191 0.08812566 -0.06070338 -0.100009516 0.022124121 -0.066891566 -0.07570469 -0.011514473 0.034000717 0.07303074 -0.09922436
direction -0.03394768 0.024567856 0.030332072 -0.084477276 -0.00033707844 -0.022545626 -0.09463358 0.035594027 0.017847877 -0.14046997 0.11366185 0.0019070073 -0.08147802 -0.026738528 -0.06715799 0.0062189205
care -0.01772347 0.05679601 -0.0004831533 -0.06987324 -0.07655743 -0.031823043 0.005371826 0.08832883 0.06849064 -0.11312302 0.044840127 0.007335954 -0.10542674 -0.061632033 -0.072836384 0.06529345
already -0.0006452891 0.070701025 0.14752065 0.0071460605 0.08018678 0.01363205 0.009730141 0.06944573 -0.016859755 -0.014566908 0.0069512925 -0.07451963 0.025485069 -0.044416156 -0.0013540904 0.0055703367
becomes 0.028449012 -0.026119642 0.05362735 0.024786565 0.008367083 0.024310555 0.058561523 -0.052274328 -0.07373818 0.10096214 -0.03880231 -0.049008086 0.09970211 0.040299505 0.044593386 -0.07710962
laugh -0.09161453 0.07511445 0.076755054 -0.068552 -0.035511825 0.0035880292 -0.022724235 0.09576785 -0.03827782 -0.06901753 0.09070595 -0.00037875975 -0.06765778 -0.1318749 -0.08964298 0.054882653
example 0.047512658 -0.028158091 0.086434536 0.11621135 0.09019115 0.06477863 0.120649755 -0.09653551 -0.056921627 0.06907468 -0.1277635 -0.13529107 0.09164046 0.059747435 0.07494926 -0.07286077
friend 0.12525389 -0.14558305 0.14772761 0.16405341 0.15052725 0.17137618 0.17113292 -0.18407823 -0.13794594 0.1406182 -0.19471961 -0.1408667 0.12398543 0.07668382 0.1611777 -0.09848159
dark 0.035435587 -0.08431456 0.0808299 0.10037251 0.033327587 0.11254209 0.017859448 -0.04450568 -0.059396338 -0.01663316 -0.090175785 -0.111349806 0.08414088 0.06197182 0.03814009 -0.08357944
despite 0.0174057 0.030934239 0.010255022 -0.02311469 0.008086476 0.040887725 0.020344768 0.0026363954 0.048246928 -0.018482016 -0.020597734 0.01333472 -0.036145944 0.0005765762 -0.023103232 0.02394529
under 0.083011 -0.06282382 0.053908702 0.04913886 0.0915445 0.110468276 0.06743834 -0.033284925 -0.09919403 0.030862983 -0.061055962 -0.12844856 0.039795604 0.015864614 0.12483193 -0.049579658
seemed 0.06905217 -0.026736815 -0.09367128 0.048506673 -0.009093612 0.07130307 0.0608604 -0.10296062 0.0031702295 0.03118997 -0.016713142 -0.07981317 -0.0033452564 0.00718177 0.08424243 -0.038648292
throughout -0.016352048 -0.011141859 0.041975923 -0.011974584 0.03134361 0.049640063 0.05405348 0.002714773 -0.05255259 -0.0529293 -0.03772572 -0.0055194357 0.040779464 -0.03891901 0.022634989 -0.0412274
4 -0.024967803 0.07183188 -0.028356316 -0.010845226 -0.0852083 -0.025484847 -0.031159854 0.052150052 0.06981018 -0.11668886 0.07571802 0.05555581 -0.092742756 -0.06156958 -0.08041788 0.08670593
turn -0.09255085 0.11948387 0.021448016 -0.11328134 -0.0700841 -0.00905044 -0.07808332 0.067574486 0.108017 -0.077552654 0.07151751 0.07709198 -0.099968374 -0.059267946 -0.122812144 0.08806297
unfortunately 0.046727765 -0.01810996 0.007260181 0.009094814 0.10079701 0.054676164 0.031633146 -0.08483516 -0.047379456 0.0393367 -0.084840044 -0.05359785 0.049263425 0.053187408 0.0714655 -0.095028736
wanted -0.09546016 0.046404593 -0.06529618 -0.028209308 -0.020107478 0.00067427556 -0.09408788 0.09296774 0.024207046 -0.05426297 0.11870853 -0.012367461 -0.06792085 -0.078649014 -0.101756126 0.05827394
i'd 0.23718488 -0.13753021 0.08616542 0.1454375 0.18868375 0.17586029 0.17751528 -0.17195758 -0.18378243 0.18411884 -0.18041185 -0.23654258 0.24210232 0.13785991 0.19944875 -0.22950849
 0.050781675 0.024351276 0.015042169 -0.013361527 0.054338522 -0.005308189 0.02758027 0.022342918 -0.044238795 -0.031028306 -0.043101143 -0.026989523 0.054578148 0.08229451 0.013134972 0.0035362756
children 0.03872511 0.0013837715 0.054828513 0.0049888478 0.043977145 0.023216546 -0.009691892 -0.024523374 -0.065266505 -0.005454657 -0.025641795 -0.064375035 0.042728834 -0.03510346 0.0292882 -0.079228565
final 0.012946913 -0.06715653 -0.009923492 0.07043837 0.016627772 0.07623478 0.047800556 -0.0025939776 -0.06902898 0.07197831 -0.058618337 -0.09118868 0.05978512 0.028303944 0.099653006 -0.098499216
fine 0.16573167 -0.13225351 0.13259453 0.20894438 0.19617921 0.22403184 0.18765464 -0.14349936 -0.22607958 0.16430391 -0.12701844 -0.17886269 0.12937555 0.082204595 0.14636828 -0.13932377
history -0.08896216 0.09515527 0.043358658 0.031796634 0.04982575 0.06467076 -0.0029933478 0.07283937 -0.038252924 -0.11362239 0.07571528 -0.027460366 -0.0141149815 -0.12817074 -0.085588306 -0.028717214
amazing 0.08528125 -0.01011949 0.07598827 0.061182592 0.07531986 0.09258102 0.10175578 -0.07194897 -0.10521717 0.08372482 -0.14838661 -0.03107304 0.119398266 0.084035106 0.10492258 -0.13153628
sound 0.15931503 -0.06447316 0.108569205 0.14668335 0.13215369 0.040047552 0.13634263 -0.1733784 -0.11443953 0.16536732 -0.10513048 -0.13759595 0.11409147 0.03913314 0.1201282 -0.107547946
guess -0.0897514 0.042208932 -0.050344072 -0.08722669 -0.10464091 -0.024750093 -0.07891708 0.13508673 0.03214091 -0.16185743 0.095011115 0.10247383 -0.09459139 -0.13621767 -0.1387554 0.042904425
heart 0.1257651 -0.13268028 0.044869322 0.10976679 0.19161047 0.17034419 0.12793891 -0.13235879 -0.15217839 0.13760766 -0.15319121 -0.17835435 0.18258977 0.0875445 0.14760056 -0.10977755
totally -0.033142693 0.07955624 0.09277909 0.012737702 -0.055222 -0.044520903 0.0024633291 0.0039700577 0.04400148 0.041434865 -0.021812934 0.031654872 -0.036096804 -0.10316275 0.024580333 0.030144498
lead 0.1078701 -0.116951376 -0.016477304 0.08162877 0.053965826 0.07499039 0.06359647 -0.09871311 -0.08764646 0.10231871 -0.13218069 -0.067539744 0.14467338 0.16788073 0.12154864 -0.110794164
humor -0.03143157 -0.01814789 0.01771231 0.05113135 0.07516234 0.002288013 -0.010432349 -0.03646716 0.0036013024 0.022270763 -0.01253923 -0.02530207 0.007250892 -0.018978791 -0.031879608 0.012911359
writing -0.018867008 -0.007882668 0.072841205 -0.05720795 -0.0287324 -0.025173925 -0.0531979 0.055180226 0.050786447 -0.07167908 0.07176934 0.067378424 -0.06786885 0.018003767 0.0032657431 -0.0045558987
michael 0.05538292 0.022568904 0.055329055 0.03348889 0.019536264 0.045415986 0.060447186 -0.037710287 -0.058758307 0.0645889 -0.030445227 -0.07435186 0.028955368 0.053902112 0.013978675 -0.09307247
quality -0.06792264 0.09554091 0.12556641 -0.007337627 -0.0029223089 0.021569597 -0.00801295 0.066801436 -0.011823545 -0.02229818 0.07378257 -0.009250988 -0.031110013 -0.108855344 -0.06729644 -0.001501265
you'll -0.033312384 0.10407716 0.10967328 -0.014016643 0.022499925 0.032181486 0.007938183 0.062222533 0.021905124 -0.045424536 0.07390264 0.000910871 -0.008597731 -0.06765648 -0.05343411 0.030077629
close 0.14099896 -0.0663093 0.119906716 0.12376146 0.18661676 0.1275586 0.10375537 -0.12209569 -0.19645317 0.10984853 -0.115549386 -0.18703142 0.11442201 0.107324645 0.14907923 -0.13216247
son 0.05024187 0.0029281082 -0.016676638 0.01608384 0.082884915 0.04834462 0.051478636 0.018149981 -0.009658691 0.017963074 -0.065331854 -0.0067838435 0.00085523445 0.039553367 0.012018007 -0.0032150757
guys 0.038870666 -0.04462571 0.10089513 0.02830022 0.08921089 0.037103172 0.1038637 -0.10375114 -0.10206771 0.06931929 -0.124593295 -0.06033384 0.04568942 0.079777524 0.037671372 -0.10031814
wants 0.03688365 -0.00077801856 -0.08686097 0.04798587 0.060843498 0.09424393 0.08297713 -0.044064134 -0.005873945 0.05191593 -0.05916617 -0.07452503 0.07274812 0.020408258 0.009710552 0.0061098556
works 0.09177247 -0.0050565493 0.13376293 0.09455671 0.12385939 0.11993766 0.111975804 -0.09515087 -0.118061 0.06129 -0.11549575 -0.06769082 0.054865833 0.007141951 0.080187485 -0.06149312
behind -0.018261205 0.005299606 0.085198015 0.018800111 0.0078554 0.043295953 -0.019086171 0.02564697 -0.07581125 -0.06258548 0.014466204 0.01211848 -0.012442279 -0.06457963 -0.008738391 0.008564547
tries -0.08449141 0.02126394 0.026081275 -0.07620932 -0.013023511 -0.05538408 -0.043545753 0.133106 -0.009303217 -0.0673781 0.13328332 0.0695957 -0.06510446 -0.14012852 -0.106269635 0.06841654
art -0.038281355 0.07499674 0.03383616 -0.022849668 -0.005950242 -0.028526612 -0.005398587 0.10448045 -0.014752561 -0.13061713 0.03878192 -0.015391731 -0.06943718 -0.082995854 -0.08984315 0.029032098
side 0.040586494 -0.025506796 0.07176637 0.0055926037 0.06479491 0.007675804 0.0024352542 -0.06365265 -0.046742734 -0.026903538 -0.066655226 -0.030866498 -0.002126169 0.015081628 0.06568659 -0.045080632
game 0.031144585 0.035812758 -0.009452185 -0.028944034 0.0062474436 -0.0327172 -0.0140378885 -0.048197746 0.030038105 0.0107484525 0.0011772139 0.010096948 0.011533872 0.03911609 -0.04136201 0.015769701
past -0.08241102 0.012287805 -0.03094176 -0.061189055 0.019509105 -0.055975527 -0.026078876 0.062318534 -0.010453753 -0.0009688538 0.0026148302 -0.022137426 -0.06799229 -0.03758709 0.019042987 0.018459566
able 0.07980026 -0.057732247 0.04118414 0.13429321 0.07884797 0.12742049 0.11526221 -0.066070266 -0.076054454 0.118564345 -0.054187555 -0.12860925 0.08232415 0.11168528 0.060985226 -0.07356447
b 0.005710834 -0.058821652 0.06052196 0.055874225 0.0527217 0.03927177 0.031627957 -0.02809281 -0.040966105 0.09988295 -0.050025783 -0.07075698 0.063717335 0.008037567 0.073579565 -0.009225999
days -0.12463533 0.11992354 0.12726524 -0.020412372 -0.029519523 -0.04359767 -0.014580453 0.108808696 0.0026678839 -0.06912334 0.05499944 0.08632469 -0.06673215 -0.09949472 -0.09441935 0.053666618
turns -0.068024814 0.061468888 -0.04307357 -0.09195711 -0.10817122 -0.048822876 -0.09242561 0.07038969 0.09793176 -0.012134121 0.061868798 0.119051844 -0.026067384 -0.1040161 -0.09651021 0.08444476
child 0.044143297 -0.022012385 0.027351132 0.13925882 0.08176881 0.14982237 0.042471524 0.032136824 -0.13452728 -0.009770721 0.0076960414 -0.10115109 0.008644442 0.021530788 0.0256366 -0.06908888
they're -0.03717412 0.07439991 -0.014179006 -0.07234196 -0.0143618705 -0.013382619 -0.09071163 0.12034579 0.030971495 -0.0761401 0.123109415 0.0702128 -0.09845558 -0.0108409375 -0.10614092 0.05099906
